-2.952180337160825729e-03,3.275012969970703125e-02,2.386395819485187531e-02,1.786201447248458862e-02,2.285341173410415649e-02,8.617947995662689209e-02,5.854997411370277405e-02,4.041855782270431519e-02,7.939290255308151245e-02,2.949593029916286469e-02,-1.573336124420166016e-02,-6.642657518386840820e-02,1.240101233124732971e-01,7.972341030836105347e-02,-5.724387243390083313e-02,4.302996024489402771e-02,-5.352388694882392883e-02,-5.834659188985824585e-02,3.959497436881065369e-02,4.928242787718772888e-02,-2.610679343342781067e-02,-3.943144157528877258e-02,-4.231751430779695511e-03,5.129253864288330078e-02,-9.947675466537475586e-02,-1.563106663525104523e-02,3.900147601962089539e-02,-1.318741682916879654e-02,-1.012730151414871216e-01,6.729684770107269287e-02,6.412132061086595058e-04,4.109577462077140808e-02,4.132841713726520538e-04,-4.597129672765731812e-02,-1.527174655348062515e-02,4.801429063081741333e-02,-1.588734611868858337e-02,-4.418125376105308533e-03,4.014793958049267530e-04,3.940302506089210510e-02,7.305543869733810425e-02,7.110115140676498413e-02,4.805850237607955933e-02,4.290898144245147705e-02,4.134304448962211609e-02,9.220421314239501953e-02,1.503153052181005478e-02,-7.715578377246856689e-02,-4.523858055472373962e-02,-4.357623681426048279e-02,-5.882475152611732483e-02,-1.217974349856376648e-02,-2.310035191476345062e-02,8.709558844566345215e-02,4.607646539807319641e-02,-2.602826990187168121e-02,-9.305777400732040405e-02,6.687729805707931519e-02,3.181790187954902649e-02,-1.961603760719299316e-02,-3.584686294198036194e-02,4.605721309781074524e-02,6.943358480930328369e-02,-1.924421824514865875e-02,1.233230112120509148e-03,4.811970144510269165e-02,-1.068953052163124084e-01,-8.223021775484085083e-02,-1.784495264291763306e-02,5.619918927550315857e-02,-2.893021516501903534e-02,-6.998107582330703735e-02,-5.116129666566848755e-02,3.065137565135955811e-02,3.746358305215835571e-02,-1.738887093961238861e-02,2.051998674869537354e-02,-5.253091081976890564e-02,-7.461759448051452637e-02,-1.563979499042034149e-02,8.124080300331115723e-02,-1.106147021055221558e-01,-3.828839585185050964e-02,7.431998103857040405e-02,-7.609493285417556763e-02,4.017693549394607544e-02,8.748727850615978241e-03,-6.282663345336914062e-02,4.854328185319900513e-02,3.444792702794075012e-02,-1.531886309385299683e-02,4.129121080040931702e-02,6.602808088064193726e-02,-9.067211300134658813e-02,7.366514950990676880e-02,9.581517428159713745e-02,4.314897209405899048e-02,7.897583395242691040e-02,-5.220520123839378357e-02,-2.271962910890579224e-02,-9.433023631572723389e-02,9.249064326286315918e-02,7.738856226205825806e-02,-9.498155117034912109e-02,-1.677731797099113464e-02,-1.685957773588597775e-03,2.951286733150482178e-02,8.603437989950180054e-02,-6.273417919874191284e-02,-1.953431777656078339e-02,8.950431831181049347e-03,1.067135706543922424e-01,1.060884296894073486e-01,-4.656257107853889465e-02,-3.023643419146537781e-02,-9.572913497686386108e-02,-3.567469492554664612e-02,-3.473727777600288391e-02,8.154781162738800049e-02,6.656930595636367798e-02,8.941617608070373535e-02,-1.985996216535568237e-02,7.744067907333374023e-02,5.164504423737525940e-02,-1.206062640994787216e-02,8.666072785854339600e-02,3.740676492452621460e-02,-8.832120150327682495e-02,-7.083035260438919067e-02,5.787834525108337402e-02,-9.463811665773391724e-02,-3.743498027324676514e-02,3.788061812520027161e-02,4.045001789927482605e-02,2.170803025364875793e-02,-4.035303741693496704e-02,-6.034346669912338257e-02,2.390481345355510712e-02,-1.638877764344215393e-02,-1.624523848295211792e-02,-2.081229165196418762e-02,4.962656646966934204e-02,-1.067742556333541870e-01,5.889426544308662415e-02,-5.847603455185890198e-02,-7.515126466751098633e-02,9.298146702349185944e-03,3.895818814635276794e-02,2.110300213098526001e-02,-1.016136407852172852e-01,-4.902600497007369995e-02,-1.324895024299621582e-02,-3.604630706831812859e-03,2.157490327954292297e-02,-5.273205041885375977e-02,-1.207433547824621201e-02,7.552532851696014404e-02,1.317793410271406174e-02,3.700132668018341064e-02,5.679347738623619080e-02,-9.075070172548294067e-02,-2.112317597493529320e-03,1.765624247491359711e-02,-5.463720858097076416e-02,9.166822768747806549e-03,3.925220109522342682e-03,-3.598970547318458557e-02,-5.123988538980484009e-02,-6.651994585990905762e-02,-1.231660321354866028e-02,-7.107648253440856934e-02,-3.996406123042106628e-02,-2.761779166758060455e-02,-1.934333331882953644e-02,-1.040251925587654114e-01,-1.130627915263175964e-01,-6.174448505043983459e-02,5.606165900826454163e-02,-9.850675612688064575e-02,-8.341973274946212769e-02,2.019763179123401642e-02,-8.585409075021743774e-02,-6.734733283519744873e-02,5.718487128615379333e-02,-4.135890677571296692e-02,-4.521229118108749390e-02,4.755116999149322510e-02,2.970551699399948120e-02,1.954877283424139023e-03,1.011598706245422363e-01,-1.180615201592445374e-01,-1.068113371729850769e-01,-4.709748178720474243e-02,-8.752204477787017822e-02,-7.670831680297851562e-02,-2.774019539356231689e-02,-1.259095519781112671e-01,5.068076029419898987e-02,-3.791286796331405640e-02,-6.283494830131530762e-02,-1.050913110375404358e-01,7.535777986049652100e-02,3.731818497180938721e-02,1.723758317530155182e-02,-7.032825052738189697e-02,-4.068205505609512329e-02,-3.596008569002151489e-02,-7.137430459260940552e-02,2.333916909992694855e-02,-1.554936915636062622e-02,-1.697009801864624023e-02,-1.045899987220764160e-01,-8.947513252496719360e-02,4.155715182423591614e-02,6.202196329832077026e-02,-1.156818494200706482e-01,-5.868506804108619690e-02,-1.222531571984291077e-01,-6.532535701990127563e-02,-4.468389088287949562e-04,-5.930391326546669006e-02,-2.050862088799476624e-02,9.210866689682006836e-02,-1.105522960424423218e-01,-8.190046064555644989e-03,-1.353202201426029205e-02,1.244094967842102051e-02,5.906282365322113037e-02,-4.182273149490356445e-02,-4.654977843165397644e-02,-8.389224112033843994e-02,4.788044467568397522e-02,4.534197226166725159e-02,-5.411855131387710571e-02,4.667199775576591492e-02,-1.439910475164651871e-02,4.534441977739334106e-03,3.937973082065582275e-02,3.781156241893768311e-02,-4.626748338341712952e-02,1.802986487746238708e-02,3.595440415665507317e-03,-1.035443469882011414e-01,-9.069944173097610474e-02,-3.500124812126159668e-02,5.300421640276908875e-02,-1.979636028409004211e-02,6.049880385398864746e-02,-5.006962455809116364e-03,-6.944764405488967896e-03,-1.225900426506996155e-01,-3.574776276946067810e-02,4.417051002383232117e-02,-5.944900214672088623e-02,1.482288446277379990e-02,4.097926989197731018e-02,-1.155260950326919556e-02,8.064755797386169434e-02,6.312184967100620270e-03,-9.283053129911422729e-02,7.466424256563186646e-02,-3.106627427041530609e-02,-7.917619496583938599e-02,3.630097489804029465e-03,-4.190020635724067688e-02,-3.845656290650367737e-02,8.178402483463287354e-02,2.961428835988044739e-03,-3.057244606316089630e-02,8.758536726236343384e-02,8.207503706216812134e-02,-6.276353448629379272e-02,9.180661290884017944e-02,-1.139577198773622513e-02,5.924623459577560425e-02,-8.765622973442077637e-02,5.942263826727867126e-02,4.348090291023254395e-02,-9.563941508531570435e-02,-5.876900255680084229e-02,7.670204341411590576e-02,-9.502048790454864502e-02,1.369236316531896591e-02,2.011849777773022652e-03,-8.650182187557220459e-02,-8.869924396276473999e-02,4.458699002861976624e-02,2.146102115511894226e-02,-4.687055200338363647e-02,7.158289104700088501e-02,-5.887337774038314819e-02,-6.554684787988662720e-02,6.579481810331344604e-02,3.703187778592109680e-02,3.757499530911445618e-02,-6.840280443429946899e-02,-6.619627773761749268e-02,-8.285823464393615723e-02,1.892834715545177460e-02,-7.446677982807159424e-02,1.490517798811197281e-02,-6.581747531890869141e-02,-3.067506663501262665e-02,7.483369857072830200e-02,8.810561150312423706e-02,6.211388111114501953e-02,-1.793800038285553455e-03,1.994178630411624908e-03,7.968305051326751709e-02,-9.875587373971939087e-02,3.303184732794761658e-02,-8.281295187771320343e-03,1.395603455603122711e-02,7.304213941097259521e-02,7.327144593000411987e-02,-2.466205693781375885e-02,5.669962987303733826e-02,7.417873293161392212e-02,-4.449493065476417542e-02,-3.126460313796997070e-02,-8.160877227783203125e-02,1.032669935375452042e-02,-8.328239619731903076e-02,7.382177561521530151e-02,2.277210913598537445e-02,-6.244348827749490738e-03,-3.524256125092506409e-02,5.912154912948608398e-02,8.992885053157806396e-02,-6.867570336908102036e-03,-9.503579698503017426e-03,4.243639484047889709e-02,9.495376050472259521e-02,-5.462828651070594788e-02,9.526298195123672485e-02,8.904679119586944580e-02,6.517034024000167847e-02,5.036775395274162292e-02,7.291791588068008423e-02,7.395870983600616455e-03,3.128395602107048035e-02,-5.985433980822563171e-02,7.007735222578048706e-02,6.639878451824188232e-02,8.756361901760101318e-02,-3.907716274261474609e-02,2.305688522756099701e-02,-2.604201668873429298e-03,3.049768134951591492e-02,9.632347524166107178e-02,-1.857351139187812805e-02,-2.274394221603870392e-02,8.799244463443756104e-02,5.672024562954902649e-03,-1.707425527274608612e-02,4.150078073143959045e-02,-6.114432588219642639e-02,2.818975783884525299e-02,-6.335406750440597534e-02,5.123085156083106995e-02,-4.547884315252304077e-02,-4.541564267128705978e-03,-1.307254284620285034e-02,5.368479061871767044e-03,-1.414151396602392197e-02,2.958148904144763947e-02,3.712294250726699829e-02,5.441263318061828613e-02,-3.470031917095184326e-02,9.436739981174468994e-02,9.484073519706726074e-02,-7.588835060596466064e-02,3.766976296901702881e-02,1.889362372457981110e-02,2.748852595686912537e-02,5.258847493678331375e-03,1.638983748853206635e-02,-7.878705859184265137e-02,-4.969966784119606018e-02,-5.382273811846971512e-03,3.145984187722206116e-02,-1.395537983626127243e-02,6.744021922349929810e-02,7.698031514883041382e-02,-1.532060001045465469e-02,-3.365114331245422363e-02,-6.959839165210723877e-02,-9.667913545854389668e-04,9.973787516355514526e-02,5.030109733343124390e-02,-2.005892246961593628e-02,-2.882402390241622925e-02,1.545766182243824005e-02,8.157677948474884033e-02,2.162672020494937897e-02,2.374251373112201691e-02,-1.831515133380889893e-02,-8.793397992849349976e-02,-9.760855883359909058e-02,6.106035411357879639e-02,-7.812654972076416016e-02,2.267981506884098053e-02,9.500911086797714233e-02,9.377978742122650146e-02,-1.189073771238327026e-01,-8.959919959306716919e-02,9.935595095157623291e-03,3.976165130734443665e-02,1.739696972072124481e-02,9.496941417455673218e-02,-2.794088982045650482e-02,-9.100091457366943359e-02,5.778055638074874878e-02,-2.975412411615252495e-03,-7.190207391977310181e-02,-7.110764831304550171e-02,4.749013856053352356e-02,-9.285265207290649414e-02,-4.980755969882011414e-02,9.729970246553421021e-03,-6.395176798105239868e-02,-9.412045776844024658e-02,-2.648322656750679016e-02,1.090178042650222778e-01,4.326595366001129150e-02,2.430568076670169830e-02,1.481068506836891174e-02,4.844898357987403870e-02,-8.230683207511901855e-02,4.277100786566734314e-02,3.464809386059641838e-03,7.130786776542663574e-02,-7.868055999279022217e-02,4.012741521000862122e-02,-6.222610175609588623e-02,8.571683615446090698e-02,-1.108967792242765427e-02,-5.112056061625480652e-02,-7.590180728584527969e-03,9.040893614292144775e-02,8.758607506752014160e-02,3.311975672841072083e-02,-1.112208701670169830e-02,-3.406556695699691772e-02,3.120151907205581665e-02,2.866278169676661491e-03,-3.431399166584014893e-02,-4.312992468476295471e-02,7.560780644416809082e-02,8.123670518398284912e-02,1.847502030432224274e-02,4.534482210874557495e-02,2.461468428373336792e-02,2.009286172688007355e-02,-5.835663527250289917e-02,-7.719026505947113037e-02,4.258773103356361389e-02,5.670515075325965881e-02,-5.205677077174186707e-02,5.340823903679847717e-02,1.006496511399745941e-02,8.448906242847442627e-02,9.339337050914764404e-02,-1.058872491121292114e-01,4.666769877076148987e-02,5.346971005201339722e-02,2.322686649858951569e-02,-3.523515537381172180e-02,5.563213303685188293e-02,-6.416226271539926529e-03,-2.049490064382553101e-02,-6.509332917630672455e-03,-1.012353152036666870e-01,3.658535331487655640e-02,-5.546095222234725952e-02,-2.321899496018886566e-02,9.717217087745666504e-02,4.672119766473770142e-02,-9.667491912841796875e-02,-5.106904357671737671e-02,3.951928392052650452e-02,-4.399001598358154297e-02,-5.737867951393127441e-02,3.789678588509559631e-02,1.593427546322345734e-02,1.028133323416113853e-03,5.751435458660125732e-02,-2.205019444227218628e-02,1.745613291859626770e-03,6.072257086634635925e-02,1.953061111271381378e-02,-8.661317825317382812e-02,-2.060269936919212341e-02,9.365335106849670410e-02,1.177591457962989807e-02,-6.387218832969665527e-02,1.676720753312110901e-02,2.853432483971118927e-02,-6.434483081102371216e-02,1.829605316743254662e-04,-1.159798949956893921e-01,-5.810781847685575485e-03,-3.481970727443695068e-02,3.985820338129997253e-02,-1.305178459733724594e-02,-8.405273407697677612e-02,-3.788689523935317993e-02,3.626722842454910278e-03,8.263635635375976562e-02,4.907073825597763062e-02,-1.661347411572933197e-02,5.096938088536262512e-02
-5.048854649066925049e-02,-8.740115165710449219e-02,6.308314204216003418e-02,4.834046214818954468e-02,-5.115174502134323120e-02,-7.545407395809888840e-03,1.874228939414024353e-02,-6.984876096248626709e-02,-2.054608985781669617e-02,-5.666814744472503662e-02,-3.206706792116165161e-02,7.652475684881210327e-02,3.385965526103973389e-02,5.326924379914999008e-03,-4.223794117569923401e-02,4.834001883864402771e-03,-9.998898208141326904e-02,7.545191794633865356e-02,-4.060994833707809448e-02,4.824908450245857239e-02,6.045573536539450288e-05,-6.334376335144042969e-02,4.937891289591789246e-02,-8.639492839574813843e-02,7.124015688896179199e-02,-9.083665907382965088e-02,-1.012499332427978516e-01,-9.257422387599945068e-02,-4.804397001862525940e-03,-8.571097254753112793e-02,-3.575545176863670349e-02,1.361522823572158813e-02,4.243373498320579529e-02,6.069751456379890442e-02,4.909209161996841431e-02,3.705552592873573303e-02,-7.222957164049148560e-02,-9.529851377010345459e-02,-4.611691832542419434e-02,-7.617267221212387085e-02,-8.844713121652603149e-02,7.360133808106184006e-03,-8.986277505755424500e-03,-1.179331541061401367e-01,-4.258364811539649963e-02,-6.625384837388992310e-02,-2.395376935601234436e-02,1.100904867053031921e-02,-1.272833943367004395e-01,-1.279219686985015869e-01,3.305505588650703430e-02,6.643538922071456909e-02,1.670132204890251160e-02,3.902097418904304504e-02,-9.247069805860519409e-02,-7.313924282789230347e-02,-4.074850305914878845e-02,-4.394321888685226440e-02,6.394186615943908691e-02,-1.002779323607683182e-02,6.905773282051086426e-02,-1.022808551788330078e-01,6.351214647293090820e-02,-3.979330509901046753e-02,6.900951731950044632e-03,-1.014218702912330627e-01,6.116142123937606812e-02,3.860696032643318176e-02,1.158339623361825943e-02,-1.002352759242057800e-01,1.283832266926765442e-02,-3.210193291306495667e-02,-2.971692942082881927e-02,-2.078736573457717896e-02,4.891753196716308594e-03,-1.777028851211071014e-02,2.127209305763244629e-02,1.375455688685178757e-02,-1.618477399460971355e-03,-4.069877043366432190e-02,3.346022590994834900e-02,-2.061423473060131073e-02,-1.216010004281997681e-01,8.569782972335815430e-02,-9.072242677211761475e-02,-7.764997333288192749e-02,7.663001120090484619e-02,9.392136707901954651e-03,6.964094191789627075e-02,-3.749094158411026001e-02,-8.335743099451065063e-02,-9.434696286916732788e-03,-1.141765993088483810e-02,-4.973263666033744812e-02,-8.276313543319702148e-02,-8.808539807796478271e-02,-1.173815801739692688e-01,-8.436637371778488159e-02,2.901594527065753937e-02,1.836499577620998025e-04,5.693283677101135254e-02,-3.024903871119022369e-02,8.890584111213684082e-02,5.701105669140815735e-02,-8.793374150991439819e-02,-5.866726115345954895e-02,-8.596204966306686401e-02,-4.144123196601867676e-02,-7.570024579763412476e-03,7.018013298511505127e-02,-3.652494028210639954e-02,2.041289024055004120e-02,-7.117649912834167480e-02,8.902137726545333862e-02,6.112800166010856628e-02,8.238843642175197601e-03,-9.350547939538955688e-02,-9.486888535320758820e-03,-3.859449177980422974e-02,-8.030045777559280396e-02,7.914128899574279785e-02,-1.236852444708347321e-02,6.349705904722213745e-02,-3.993660677224397659e-03,3.466976806521415710e-02,1.599613763391971588e-02,-3.840070590376853943e-02,-8.201847970485687256e-02,6.365440040826797485e-02,-1.550790518522262573e-01,-6.992474943399429321e-02,-9.947086125612258911e-02,-1.087817400693893433e-01,6.189725548028945923e-02,-6.580616533756256104e-02,5.006624385714530945e-02,-6.566667556762695312e-02,3.050309792160987854e-02,-8.325022459030151367e-02,-9.644665569067001343e-02,-6.745883822441101074e-02,-2.084878040477633476e-03,-5.426020547747612000e-02,6.313619017601013184e-02,-1.051908954977989197e-01,-2.735430747270584106e-02,1.035935524851083755e-02,3.831794485449790955e-02,-1.134577244520187378e-01,-7.305173575878143311e-02,4.630128666758537292e-02,-4.149777442216873169e-02,-1.072812546044588089e-02,3.197984397411346436e-02,-9.012531489133834839e-02,-2.403481304645538330e-02,6.298960745334625244e-02,-6.645509600639343262e-02,5.322981625795364380e-02,-7.523652911186218262e-02,-6.403190642595291138e-02,1.032977085560560226e-02,1.258927024900913239e-02,-9.054353088140487671e-02,1.716091297566890717e-02,-6.285986304283142090e-02,-6.840312480926513672e-02,6.902033090591430664e-02,5.193236097693443298e-02,-9.756126254796981812e-02,-4.412993043661117554e-02,-4.816544428467750549e-02,6.627935916185379028e-02,-1.027407050132751465e-01,3.655068576335906982e-02,-8.885389566421508789e-02,-5.137455463409423828e-02,-1.120410859584808350e-02,1.661364547908306122e-02,5.564079061150550842e-02,4.540627449750900269e-02,-3.359550237655639648e-02,-1.008633747696876526e-01,3.531815484166145325e-02,-1.000480204820632935e-01,-7.375913206487894058e-03,-6.529936194419860840e-02,1.558754313737154007e-02,-1.129228025674819946e-01,7.221665978431701660e-02,-2.544713392853736877e-02,-6.674844026565551758e-02,-9.157540649175643921e-02,-4.384385421872138977e-02,-6.525544822216033936e-02,-5.912201106548309326e-02,6.865878123790025711e-03,-7.990808784961700439e-02,-8.987393230199813843e-02,-2.614231780171394348e-02,-5.307403579354286194e-02,4.498547688126564026e-02,8.911133557558059692e-02,-4.942070320248603821e-02,-3.083371743559837341e-02,3.985723480582237244e-02,5.345916002988815308e-02,-5.736647173762321472e-02,-1.244250088930130005e-01,-4.986787587404251099e-02,-2.527828793972730637e-03,-4.220163449645042419e-02,1.774786785244941711e-02,1.782947219908237457e-02,-3.505736216902732849e-02,8.168075000867247581e-04,-1.098435670137405396e-01,4.622013121843338013e-02,2.569022180978208780e-04,-2.682458795607089996e-02,-1.902948319911956787e-02,7.245391607284545898e-02,3.701386228203773499e-02,3.457387909293174744e-02,3.488978138193488121e-03,-5.228686705231666565e-02,2.167868614196777344e-02,-1.124429851770401001e-01,6.286104023456573486e-02,-7.833631336688995361e-02,-6.850178539752960205e-02,-9.789644181728363037e-02,1.265878323465585709e-02,-1.688981801271438599e-02,-4.910487681627273560e-02,8.386033587157726288e-03,-1.094692572951316833e-01,-1.345311477780342102e-02,2.965980675071477890e-03,5.197116173803806305e-03,-2.782314456999301910e-02,-5.997020751237869263e-03,-8.659593760967254639e-03,-8.525785058736801147e-02,-9.991329163312911987e-02,-1.082354262471199036e-01,-1.134377345442771912e-02,-7.331436127424240112e-02,-9.370087087154388428e-02,-8.309721946716308594e-02,-9.984826296567916870e-02,-4.962198436260223389e-02,5.155281722545623779e-02,-3.119756653904914856e-02,3.230290859937667847e-02,-6.437341868877410889e-02,-5.496785789728164673e-02,4.818204045295715332e-02,-5.954637005925178528e-02,6.860326230525970459e-02,-1.077417135238647461e-01,5.160306021571159363e-02,-8.291569352149963379e-02,1.307655591517686844e-02,8.532270044088363647e-02,1.376542728394269943e-02,-2.853745035827159882e-02,-1.477212179452180862e-02,8.596135303378105164e-03,7.028350979089736938e-02,-3.137256577610969543e-02,2.249160781502723694e-03,6.209951266646385193e-02,-4.020250588655471802e-02,-4.150687158107757568e-02,9.207471460103988647e-02,-2.767312526702880859e-02,-6.690661609172821045e-02,-1.061331406235694885e-01,-6.795069575309753418e-02,7.945830374956130981e-02,4.537761211395263672e-02,8.256444334983825684e-02,7.176414877176284790e-02,5.699952132999897003e-03,-1.987390220165252686e-02,9.363743662834167480e-02,-6.569719407707452774e-04,-2.654515579342842102e-02,6.009108200669288635e-02,4.320343211293220520e-02,-1.504731271415948868e-02,-8.735150098800659180e-02,-4.315515235066413879e-02,2.726189233362674713e-02,8.698065765202045441e-03,6.961970776319503784e-02,4.124961793422698975e-02,-7.033709436655044556e-02,-1.101943850517272949e-02,-1.067001372575759888e-01,-1.082827243953943253e-02,-6.170758046209812164e-03,9.173243492841720581e-02,2.436528913676738739e-02,-5.395823717117309570e-02,-2.912433631718158722e-02,-5.914916470646858215e-02,-1.739963889122009277e-02,2.232490107417106628e-02,-6.909453123807907104e-02,-5.360748991370201111e-02,-6.650439649820327759e-02,-3.523101657629013062e-02,-2.831258438527584076e-02,-2.418730407953262329e-02,2.078947611153125763e-02,7.330981642007827759e-02,2.333503216505050659e-02,7.295225560665130615e-02,-1.398523803800344467e-02,-8.997986465692520142e-02,-6.343835592269897461e-02,2.553213760256767273e-02,-6.544940918684005737e-02,7.197144627571105957e-02,5.627233907580375671e-02,6.033335998654365540e-02,7.231088727712631226e-02,8.454426378011703491e-02,9.471298009157180786e-02,5.720010772347450256e-02,-2.627641335129737854e-02,-3.328325971961021423e-02,9.465494006872177124e-02,-5.583854019641876221e-02,8.527416735887527466e-02,-5.005852133035659790e-02,-8.848631381988525391e-02,-8.801770210266113281e-02,6.964154541492462158e-02,-1.935651153326034546e-02,5.394783988595008850e-02,4.107590764760971069e-02,-9.412831068038940430e-02,6.360942870378494263e-02,-2.152291126549243927e-02,-2.120944671332836151e-02,-5.240537598729133606e-02,9.206648916006088257e-02,3.904608637094497681e-02,-9.221005439758300781e-02,-7.394314557313919067e-02,8.255263417959213257e-02,-6.752926111221313477e-02,8.357376791536808014e-03,1.039629057049751282e-01,-8.332975953817367554e-02,4.138598591089248657e-02,1.444131415337324142e-02,2.218136563897132874e-02,-1.474264077842235565e-03,5.623538047075271606e-02,-5.951314233243465424e-03,-4.030802845954895020e-02,7.682968676090240479e-02,3.914882242679595947e-02,5.363400094211101532e-03,6.657420843839645386e-02,6.395667046308517456e-02,4.133000038564205170e-03,2.697189152240753174e-02,7.912593334913253784e-02,6.674834340810775757e-02,7.144229859113693237e-02,9.479248523712158203e-02,-7.266067713499069214e-02,2.384376525878906250e-02,-2.458519302308559418e-02,4.649356752634048462e-02,7.525687571614980698e-03,-1.044437363743782043e-01,6.552662700414657593e-02,-2.793990448117256165e-02,3.170581907033920288e-02,-4.365095868706703186e-02,7.157694548368453979e-02,1.316478848457336426e-02,-4.282496869564056396e-02,-8.251279592514038086e-02,-1.041100732982158661e-02,1.413804292678833008e-02,-2.475308254361152649e-02,-7.550629228353500366e-02,-1.088930442929267883e-01,3.064811602234840393e-02,-1.347914524376392365e-02,2.397249266505241394e-02,3.274490684270858765e-02,-2.769291633740067482e-03,1.317475084215402603e-02,1.937399432063102722e-02,4.584869369864463806e-02,-7.786367554217576981e-03,2.653215825557708740e-02,2.772435732185840607e-02,5.348701775074005127e-02,-7.369142025709152222e-02,-1.010577082633972168e-01,2.233927883207798004e-02,-1.539162453263998032e-02,-6.461814045906066895e-02,-2.251301519572734833e-02,-9.910403192043304443e-02,-6.181547418236732483e-02,-8.388800173997879028e-02,5.956361815333366394e-02,1.514852885156869888e-02,2.801899611949920654e-02,6.204151734709739685e-02,-4.655714705586433411e-02,1.291122008115053177e-02,-1.022948250174522400e-01,-7.983035594224929810e-02,-7.084442675113677979e-02,-6.680165976285934448e-02,-1.583492010831832886e-01,3.662692010402679443e-02,5.668006092309951782e-02,-4.401772841811180115e-02,-1.000346690416336060e-01,3.897298499941825867e-02,3.960746899247169495e-02,3.814684599637985229e-02,-6.725937873125076294e-02,-5.066629871726036072e-02,-5.154301971197128296e-02,-1.980529539287090302e-02,3.214992582798004150e-02,4.724867269396781921e-02,4.139279946684837341e-02,8.055532723665237427e-02,2.351829316467046738e-03,3.873453242704272270e-03,-4.154092073440551758e-02,7.747290283441543579e-02,-1.085189264267683029e-02,-1.872983202338218689e-02,-1.234518066048622131e-01,-8.419369906187057495e-02,6.309693306684494019e-02,-4.055263102054595947e-02,-1.255937218666076660e-01,-9.642972052097320557e-02,-8.981539309024810791e-02,-3.307808190584182739e-02,3.946973476558923721e-03,-2.113566361367702484e-02,7.604245096445083618e-02,4.353101179003715515e-02,9.756069048307836056e-04,2.507881261408329010e-02,2.898486889898777008e-02,-1.250379234552383423e-01,2.094783587381243706e-03,-1.300271451473236084e-01,-7.482985407114028931e-02,-3.538084402680397034e-02,7.959411293268203735e-02,-1.353961997665464878e-04,-8.050338178873062134e-02,-3.428242355585098267e-02,-1.065813526511192322e-01,-5.552673339843750000e-02,4.196737892925739288e-03,-3.966657444834709167e-02,-3.016123734414577484e-02,-6.234852597117424011e-02,2.800090238451957703e-02,1.952857710421085358e-02,6.283576041460037231e-02,-9.822857379913330078e-02,-5.924029648303985596e-02,6.034312769770622253e-02,1.572110131382942200e-02,-8.442123979330062866e-02,-9.229315817356109619e-02,-9.648014791309833527e-03,1.082576345652341843e-02,6.936631351709365845e-02,-2.864671312272548676e-02,6.085402518510818481e-02,-6.316619366407394409e-02,7.070990651845932007e-02,-7.431345526129007339e-03,4.365692660212516785e-02,-1.005939170718193054e-01,2.716683037579059601e-02,2.035696059465408325e-02,4.214933514595031738e-02,6.870782375335693359e-02,1.017450075596570969e-02,7.568855583667755127e-02,-8.211654424667358398e-02,-9.336314350366592407e-02,-5.706916749477386475e-02,2.004121802747249603e-02,-8.099312335252761841e-02,-3.603367134928703308e-02,-4.839488491415977478e-02,-9.302864223718643188e-02,8.351892232894897461e-02
4.142106045037508011e-03,-1.269430965185165405e-01,5.417614709585905075e-03,-8.637325465679168701e-02,-6.558351218700408936e-02,-6.534369289875030518e-02,3.124526701867580414e-02,5.294144153594970703e-02,-2.810068242251873016e-02,-1.174996048212051392e-01,6.456189602613449097e-02,-9.648240357637405396e-02,-1.243016403168439865e-02,-3.979322034865617752e-03,1.481786021031439304e-03,3.218077868223190308e-02,-8.462692797183990479e-02,9.505235403776168823e-02,5.054250359535217285e-02,-1.394354552030563354e-01,-6.703430414199829102e-02,5.749608203768730164e-02,4.573638364672660828e-02,-7.969558238983154297e-02,1.136911138892173767e-01,-1.333446502685546875e-01,-2.560967206954956055e-02,1.551294885575771332e-02,-9.554959833621978760e-03,-9.329196065664291382e-03,-9.765901416540145874e-02,3.383098542690277100e-02,-7.542381435632705688e-02,-7.862221449613571167e-02,1.080747973173856735e-02,7.483666390180587769e-02,-8.905158936977386475e-02,-9.765783697366714478e-02,-8.954177051782608032e-02,-5.606975778937339783e-02,2.400051616132259369e-02,-3.282716870307922363e-02,-3.841698542237281799e-02,-5.721436068415641785e-02,-4.415644332766532898e-02,-1.115481741726398468e-02,-1.148126721382141113e-01,-2.056684903800487518e-02,-1.332422941923141479e-01,-1.424005627632141113e-01,-1.640444248914718628e-02,-9.094904363155364990e-02,-5.357227101922035217e-02,-2.389731071889400482e-02,-1.202563103288412094e-02,-7.054664194583892822e-02,5.330208688974380493e-03,-2.813068684190511703e-03,1.461268123239278793e-02,-1.100327372550964355e-01,-2.161270938813686371e-02,8.253113180398941040e-02,6.844305247068405151e-02,8.833515644073486328e-02,1.188727375119924545e-02,6.263417005538940430e-02,2.248322218656539917e-02,-9.936534613370895386e-02,2.299007400870323181e-02,-2.536727674305438995e-02,4.514317959547042847e-02,8.289194852113723755e-02,-3.621454909443855286e-02,5.057481303811073303e-02,-2.871388755738735199e-02,-6.599228084087371826e-02,-1.166235730051994324e-01,-2.352893725037574768e-02,-7.059941440820693970e-02,9.704859927296638489e-03,4.075087234377861023e-02,-5.656208842992782593e-02,-1.144591867923736572e-01,4.764838516712188721e-02,-6.787431240081787109e-02,-1.258460730314254761e-01,-9.148155897855758667e-02,-1.003597117960453033e-02,-2.255089208483695984e-02,-7.054944336414337158e-02,-4.261709377169609070e-02,6.421683728694915771e-02,2.101888693869113922e-02,-4.985873121768236160e-03,-8.137474954128265381e-02,-4.136671498417854309e-02,-7.043942459858953953e-04,1.102353539317846298e-02,-5.095363780856132507e-02,-2.996306680142879486e-02,4.800506308674812317e-02,-9.338575601577758789e-02,-2.331950142979621887e-02,-2.953279530629515648e-03,1.594768092036247253e-02,-9.002555161714553833e-02,6.699623912572860718e-02,2.928397059440612793e-02,-8.869651705026626587e-02,-2.698007225990295410e-02,-4.806268215179443359e-02,4.754567146301269531e-02,-2.915489673614501953e-02,-6.201071664690971375e-02,7.075974345207214355e-02,3.012543730437755585e-02,1.196148060262203217e-02,6.159495562314987183e-02,-1.162983328104019165e-01,2.915397658944129944e-02,7.204581052064895630e-03,-9.572937339544296265e-02,-1.193885430693626404e-01,6.035235151648521423e-02,-8.953890204429626465e-02,8.637547492980957031e-02,-3.755523636937141418e-02,6.419061124324798584e-02,5.460891406983137131e-03,2.174138789996504784e-03,-3.992372006177902222e-02,-5.374783650040626526e-02,6.533298874273896217e-04,9.642229229211807251e-02,-7.703831791877746582e-02,-2.975775860249996185e-02,-7.057451177388429642e-03,-8.382686972618103027e-02,-2.801420539617538452e-02,7.383562624454498291e-02,5.467352643609046936e-02,3.488009795546531677e-02,-9.622188284993171692e-03,-4.328367114067077637e-02,7.132598012685775757e-02,-5.491729825735092163e-02,-7.754310965538024902e-02,7.360610365867614746e-02,-5.241087079048156738e-02,2.984973788261413574e-02,7.501810044050216675e-02,-5.038075149059295654e-02,-1.456295326352119446e-02,2.381612733006477356e-02,-5.635432898998260498e-03,5.337383132427930832e-03,9.835185483098030090e-03,-6.240298971533775330e-02,1.137021258473396301e-01,3.298459947109222412e-02,7.717209309339523315e-02,3.335787355899810791e-02,-1.074101869016885757e-02,2.678153803572058678e-03,-1.226981133222579956e-01,-2.620715089142322540e-02,8.781333267688751221e-02,7.734657078981399536e-02,-6.967167556285858154e-02,1.149678304791450500e-01,1.298377513885498047e-01,-5.250231362879276276e-03,-2.488785050809383392e-02,7.444098591804504395e-03,2.003516443073749542e-02,-1.014843769371509552e-02,1.254634261131286621e-01,7.414811849594116211e-02,9.963320940732955933e-02,-5.069809034466743469e-02,-4.919734224677085876e-02,9.989968687295913696e-02,-5.097004771232604980e-02,4.990424215793609619e-02,-6.124321743845939636e-02,1.128940954804420471e-01,4.679206758737564087e-02,3.651494532823562622e-02,-3.692934662103652954e-02,-3.608607500791549683e-02,-2.351711690425872803e-02,1.401910744607448578e-02,1.767955534160137177e-02,4.591273609548807144e-03,-6.204297766089439392e-02,-4.518818855285644531e-02,1.101740971207618713e-01,-4.104806855320930481e-02,-3.604752942919731140e-02,1.903171837329864502e-02,2.719866298139095306e-02,-4.861123114824295044e-02,2.889879234135150909e-02,6.383002549409866333e-02,-9.128690510988235474e-02,5.148264020681381226e-02,-7.998181134462356567e-02,-5.585322156548500061e-02,-4.729981720447540283e-02,-2.664741128683090210e-02,4.592467844486236572e-02,-6.976557523012161255e-02,-6.374073773622512817e-02,-7.153546810150146484e-02,-5.391762405633926392e-02,3.439661487936973572e-02,-5.539681878872215748e-04,-1.134069357067346573e-02,-2.842519618570804596e-02,5.436083674430847168e-02,-7.746241986751556396e-02,1.224605832248926163e-02,-1.012590602040290833e-01,5.566794797778129578e-02,-3.723769215866923332e-03,-9.798976033926010132e-02,1.178704574704170227e-01,-8.519083261489868164e-02,1.135233491659164429e-01,6.817734986543655396e-02,7.415171712636947632e-02,4.443638026714324951e-02,-9.773150831460952759e-02,-5.542619619518518448e-03,-2.321666106581687927e-02,1.115154623985290527e-01,-2.959593012928962708e-02,9.452907741069793701e-02,-3.740102797746658325e-02,-2.284364774823188782e-02,-5.933041498064994812e-02,-2.088049193844199181e-03,5.836592614650726318e-02,-9.327840059995651245e-02,5.686073005199432373e-02,-6.451887637376785278e-02,-2.016069740056991577e-02,-2.389040403068065643e-02,-1.217679232358932495e-01,4.301800951361656189e-02,-6.750872731208801270e-02,-5.645526945590972900e-02,8.810071647167205811e-02,-6.528811156749725342e-02,5.287048406898975372e-03,-7.262113690376281738e-02,-5.671679601073265076e-02,1.388320978730916977e-02,1.019923761487007141e-02,4.255260527133941650e-02,-6.680539995431900024e-02,2.517916634678840637e-02,1.080109924077987671e-02,8.530215919017791748e-02,6.601876020431518555e-02,6.518023088574409485e-03,2.449523843824863434e-02,3.143902495503425598e-02,-1.009406596422195435e-01,4.777673166245222092e-03,1.742999814450740814e-02,-3.744776593521237373e-03,-7.843142957426607609e-04,-7.713387161493301392e-02,-8.364780247211456299e-02,1.279086619615554810e-02,2.374220639467239380e-02,-1.037607267498970032e-01,-1.066344678401947021e-01,-4.466008394956588745e-02,-5.768536776304244995e-02,-5.993229895830154419e-02,4.610446840524673462e-02,-7.754199951887130737e-02,-7.549978047609329224e-02,9.350238740444183350e-02,-2.956177853047847748e-02,3.763856366276741028e-02,-9.313861280679702759e-02,-2.083197236061096191e-02,1.091611087322235107e-01,-5.478326603770256042e-02,8.168672025203704834e-02,5.511640757322311401e-02,8.285415172576904297e-02,-3.989897295832633972e-02,5.674850195646286011e-02,2.626039832830429077e-02,-7.271147519350051880e-02,-5.859678611159324646e-02,2.549848519265651703e-02,-9.871969372034072876e-02,-4.658082127571105957e-02,2.808352187275886536e-02,1.721568987704813480e-04,-4.409105703234672546e-02,3.325665602460503578e-03,-3.343505412340164185e-02,8.362200856208801270e-02,7.629483006894588470e-03,-6.488972902297973633e-02,-5.540470778942108154e-02,1.116497907787561417e-02,9.247782640159130096e-03,5.897222459316253662e-02,3.694970160722732544e-02,6.183836236596107483e-02,-3.340195864439010620e-02,-3.130539786070585251e-03,-4.404015466570854187e-02,3.678543865680694580e-02,7.824967801570892334e-02,-2.422838099300861359e-02,7.226736843585968018e-02,-8.491349220275878906e-02,-7.253529131412506104e-02,9.828551858663558960e-02,7.454565912485122681e-02,-7.183159142732620239e-02,-1.278445497155189514e-02,7.654833607375621796e-03,-4.664188623428344727e-02,-2.673950232565402985e-02,-8.012096583843231201e-02,-2.446047961711883545e-02,5.002215877175331116e-02,-4.011163860559463501e-02,-3.109986335039138794e-02,-4.431679472327232361e-02,-1.147139351814985275e-02,-4.615647718310356140e-02,2.944202907383441925e-02,-6.613206118345260620e-02,9.197156876325607300e-02,-9.745690226554870605e-02,2.166949585080146790e-02,-6.129062920808792114e-02,4.344326257705688477e-02,1.168185938149690628e-02,5.852537602186203003e-02,6.050598807632923126e-03,-1.799530722200870514e-02,-3.133158013224601746e-02,4.729164019227027893e-02,-3.067692555487155914e-02,1.183449057862162590e-03,1.024359911680221558e-01,-5.489567294716835022e-02,4.524224251508712769e-02,1.328995916992425919e-02,1.061116158962249756e-02,-9.159634262323379517e-02,-7.308106869459152222e-03,5.274753272533416748e-02,-2.696241252124309540e-02,-9.397478774189949036e-03,2.685986459255218506e-02,6.271252781152725220e-02,8.393257856369018555e-02,-4.190644249320030212e-02,5.671696737408638000e-02,3.584968671202659607e-02,-7.021891325712203979e-02,-8.356234431266784668e-02,6.470915675163269043e-02,9.521152079105377197e-02,4.859979078173637390e-02,1.054340302944183350e-01,4.784141480922698975e-02,-3.073269873857498169e-02,8.179334551095962524e-02,-4.686074331402778625e-02,2.298345975577831268e-02,3.935268893837928772e-02,-1.196945160627365112e-01,-1.120650470256805420e-01,9.370833635330200195e-02,7.397995144128799438e-02,2.944325655698776245e-02,1.727803051471710205e-02,-5.630531162023544312e-02,1.053451094776391983e-02,-5.628505721688270569e-03,-8.118879795074462891e-02,-4.421392083168029785e-02,-9.513366967439651489e-02,3.042581118643283844e-02,8.297365158796310425e-02,1.952686696313321590e-03,-6.162795051932334900e-02,-7.533822953701019287e-02,6.763800978660583496e-02,2.837810851633548737e-02,-1.121671572327613831e-01,-1.555099431425333023e-02,1.042460054159164429e-01,1.076379604637622833e-02,-8.098657429218292236e-02,1.057609543204307556e-02,-8.899369835853576660e-02,-3.121348656713962555e-02,2.430429868400096893e-02,-4.867422208189964294e-02,1.703201420605182648e-02,-7.768979668617248535e-02,-4.341318085789680481e-02,-1.824285136535763741e-03,-3.114038333296775818e-02,1.213669218122959137e-02,1.042081601917743683e-02,6.810148060321807861e-02,9.868928045034408569e-02,-7.438672333955764771e-02,-6.879590451717376709e-02,-6.901763379573822021e-02,-7.587554305791854858e-02,1.300562289543449879e-03,3.223932813853025436e-03,5.449108034372329712e-02,1.023515686392784119e-01,7.268521934747695923e-02,1.068094670772552490e-01,-1.020071208477020264e-01,-1.131960824131965637e-01,1.651527546346187592e-02,6.622273474931716919e-02,-8.868922293186187744e-02,-6.776521354913711548e-02,-2.468944713473320007e-02,1.482227724045515060e-02,-3.258229792118072510e-02,-1.059581860899925232e-01,5.185306817293167114e-02,2.793984860181808472e-02,-1.155838221311569214e-01,-4.740755632519721985e-02,-5.667839571833610535e-02,-8.145700395107269287e-02,-1.818383485078811646e-02,1.059502214193344116e-01,-5.326536949723958969e-03,-3.423132933676242828e-03,1.085999235510826111e-01,2.225766144692897797e-02,-7.419208437204360962e-02,3.909889608621597290e-02,-5.110000446438789368e-02,-1.038843989372253418e-01,6.461419165134429932e-02,-5.420086905360221863e-02,1.311070082010701299e-04,-2.180361561477184296e-02,4.501288384199142456e-02,-5.682043731212615967e-02,-5.775764212012290955e-02,1.030543893575668335e-01,6.040682550519704819e-03,8.000104874372482300e-02,8.544468134641647339e-02,-8.239897340536117554e-02,-7.348545640707015991e-02,4.700547549873590469e-03,-6.267695873975753784e-02,-8.746713399887084961e-02,1.724685169756412506e-02,1.749992929399013519e-02,-1.257939543575048447e-02,3.121965192258358002e-02,1.011622976511716843e-02,2.480204030871391296e-02,8.600720018148422241e-02,5.610232055187225342e-02,-2.801218815147876740e-02,2.746593393385410309e-02,2.582344226539134979e-03,7.655590027570724487e-02,-1.100734770298004150e-01,3.790286928415298462e-02,3.108212351799011230e-02,1.046591904014348984e-02,6.212878040969371796e-03,-6.634182482957839966e-02,-9.121585637331008911e-03,4.447113722562789917e-02,-3.725231438875198364e-02,5.409835278987884521e-02,3.509173169732093811e-02,6.506298482418060303e-02,3.982844203710556030e-02,-4.789340868592262268e-02,-2.126373117789626122e-03,-1.206068973988294601e-02,2.147846110165119171e-02,6.223233044147491455e-02,-1.145548745989799500e-01,8.493110537528991699e-02,-4.258399829268455505e-02,-4.843764472752809525e-03,2.285891212522983551e-02,9.119700640439987183e-02,-1.562514156103134155e-02,-2.593635022640228271e-02
5.045645684003829956e-02,2.133683860301971436e-02,-3.816780447959899902e-02,3.386408835649490356e-02,2.387009747326374054e-02,-6.819596141576766968e-02,5.562692135572433472e-02,1.044661030173301697e-01,-6.262436043471097946e-03,-8.850514888763427734e-02,1.378832384943962097e-02,2.165322192013263702e-03,7.230433076620101929e-02,-1.111161282096873038e-06,-5.232443287968635559e-02,-8.180169761180877686e-02,-3.009969368577003479e-02,-1.738469488918781281e-02,-4.340595006942749023e-02,1.296793017536401749e-02,6.304197758436203003e-02,4.876038804650306702e-02,6.346786767244338989e-02,7.667074352502822876e-02,2.440740726888179779e-02,7.366957142949104309e-03,1.123653575778007507e-01,-3.499383479356765747e-02,5.049237608909606934e-02,-7.938818074762821198e-03,1.091469749808311462e-01,-8.328843116760253906e-02,1.103781815618276596e-02,9.084559977054595947e-02,3.999559674412012100e-03,8.177331648766994476e-03,8.013683557510375977e-02,3.705111518502235413e-02,-5.523480847477912903e-02,4.699964448809623718e-02,1.027409955859184265e-01,-5.190176889300346375e-02,-3.101641684770584106e-02,-1.698673889040946960e-02,2.988090738654136658e-02,-1.594389416277408600e-02,4.351027309894561768e-02,6.789228320121765137e-02,-6.868431717157363892e-02,-2.848959900438785553e-02,6.337210536003112793e-02,-6.480370461940765381e-02,4.895872250199317932e-02,1.034999936819076538e-01,3.376114764250814915e-04,-3.048873879015445709e-02,-2.466371655464172363e-02,8.965369313955307007e-03,1.831236295402050018e-02,-8.406186103820800781e-02,-5.026765912771224976e-02,-1.590632088482379913e-02,-1.968026906251907349e-02,-6.588225811719894409e-02,8.972549438476562500e-02,-4.552286118268966675e-02,4.209139198064804077e-02,1.164622530341148376e-01,-2.288364432752132416e-02,8.832521736621856689e-02,-7.901204377412796021e-02,8.127959072589874268e-02,-8.187007158994674683e-02,-6.894212216138839722e-02,3.151668608188629150e-02,2.669372409582138062e-02,-1.276059634983539581e-02,-3.013348905369639397e-03,9.453116357326507568e-02,7.340932637453079224e-02,7.493721693754196167e-02,-5.663278698921203613e-02,2.768780849874019623e-02,3.470008447766304016e-02,-8.118654787540435791e-02,-2.513496764004230499e-02,4.477715119719505310e-02,1.357375681400299072e-01,6.265275180339813232e-02,9.173696488142013550e-02,-5.020810663700103760e-02,-6.651917099952697754e-02,-8.139538764953613281e-02,-5.729591846466064453e-02,3.194365650415420532e-03,9.079855680465698242e-02,6.621994823217391968e-02,-4.405623674392700195e-02,1.002478078007698059e-01,1.751760765910148621e-02,-2.083740197122097015e-02,-5.591359734535217285e-02,4.137969389557838440e-02,1.143945083022117615e-01,3.126972541213035583e-02,3.463558480143547058e-02,-7.354782521724700928e-02,1.155620664358139038e-01,9.107053279876708984e-02,-5.511338636279106140e-02,8.885483443737030029e-02,-3.880248218774795532e-02,2.124388702213764191e-02,6.450296938419342041e-02,-3.800640255212783813e-02,6.451698951423168182e-03,-3.783280402421951294e-02,7.169402390718460083e-02,1.893366873264312744e-02,1.635985262691974640e-02,1.429549138993024826e-02,-5.387349799275398254e-02,-2.602290175855159760e-02,-8.529157936573028564e-02,3.658359870314598083e-02,2.134399861097335815e-02,-7.749447226524353027e-02,-6.967334449291229248e-02,-9.074970334768295288e-02,-4.819752648472785950e-02,3.211008384823799133e-02,-2.962031029164791107e-02,-8.769698441028594971e-02,4.724429547786712646e-02,7.747498154640197754e-02,7.394824177026748657e-02,-2.257041074335575104e-02,7.622043788433074951e-02,-4.996652528643608093e-02,1.936228200793266296e-02,-8.918068557977676392e-02,-2.543048560619354248e-02,-2.765108644962310791e-02,6.476326286792755127e-02,2.842639014124870300e-02,5.821311846375465393e-02,6.673545390367507935e-02,-7.333124428987503052e-02,9.477865695953369141e-02,1.036910787224769592e-01,-7.891925424337387085e-02,-1.300199981778860092e-02,9.193098172545433044e-03,6.818492710590362549e-02,-4.900348559021949768e-02,-8.217621594667434692e-02,-5.068095773458480835e-02,-4.839329048991203308e-02,1.648982288315892220e-03,-1.034311726689338684e-01,-1.354059483855962753e-02,-9.620332717895507812e-02,-3.385910391807556152e-02,9.638763964176177979e-03,5.654062703251838684e-02,-3.684620186686515808e-02,-1.015721112489700317e-01,-5.622729659080505371e-02,-4.812959581613540649e-02,-6.066601723432540894e-02,2.912376448512077332e-02,-2.367431297898292542e-02,2.490594983100891113e-02,-8.940903842449188232e-02,-4.653564095497131348e-02,-1.433777716010808945e-02,3.323670849204063416e-02,1.765543781220912933e-02,8.639322221279144287e-02,-1.152017414569854736e-01,-7.344258483499288559e-04,-8.304299414157867432e-02,-1.914797164499759674e-02,3.453399240970611572e-02,3.924350440502166748e-02,7.283177226781845093e-02,-9.316039830446243286e-02,-1.067608296871185303e-01,-5.795877426862716675e-02,8.984452486038208008e-02,8.838509768247604370e-02,2.088281325995922089e-02,-1.167318969964981079e-01,-6.359527818858623505e-03,7.040924578905105591e-02,-1.510347891598939896e-02,-8.768136054277420044e-02,6.295441091060638428e-02,2.256445959210395813e-02,-3.151676803827285767e-02,-1.773620769381523132e-02,-4.509141296148300171e-02,-1.327338442206382751e-02,-4.324865341186523438e-02,-1.928104273974895477e-02,1.656560413539409637e-02,5.274199321866035461e-02,6.154887005686759949e-02,1.036511883139610291e-01,7.089090347290039062e-02,-2.548527531325817108e-02,-4.255705699324607849e-02,1.376615092158317566e-02,-1.198858693242073059e-01,-4.809253849089145660e-03,1.149303019046783447e-01,-2.620065025985240936e-02,4.631016775965690613e-02,7.147718220949172974e-02,-4.002442210912704468e-02,-9.123752266168594360e-02,5.059215053915977478e-02,2.459832094609737396e-02,-3.312367573380470276e-02,5.583371594548225403e-02,7.930192351341247559e-02,1.028112974017858505e-02,2.050656639039516449e-02,-1.452883239835500717e-02,-5.617110058665275574e-02,2.423633076250553131e-02,-1.067042234353721142e-03,4.420819878578186035e-02,-2.543364837765693665e-02,-5.809314548969268799e-02,7.271660119295120239e-02,-1.391495112329721451e-03,-1.732006669044494629e-02,7.386046648025512695e-02,4.137107171118259430e-03,3.568483144044876099e-02,-4.792132228612899780e-02,-9.091649204492568970e-02,-3.427540883421897888e-02,-3.514475375413894653e-02,-4.745779559016227722e-02,-7.211375050246715546e-03,-2.954807691276073456e-02,-2.228362485766410828e-03,3.961351513862609863e-02,-8.843214809894561768e-02,-4.246429540216922760e-03,-1.025017425417900085e-01,3.254825994372367859e-02,4.431814327836036682e-02,5.506323650479316711e-02,1.258417684584856033e-02,6.538424058817327023e-04,-4.201914742588996887e-02,-7.574282586574554443e-02,-1.131787057965993881e-02,-1.562764868140220642e-03,-8.936886489391326904e-02,1.154196262359619141e-02,1.486329436302185059e-01,3.149383515119552612e-02,-8.442232012748718262e-02,1.034014821052551270e-01,-7.595212012529373169e-02,4.950593039393424988e-02,-1.138149574398994446e-01,1.955617964267730713e-02,1.399855464696884155e-01,-8.674301952123641968e-02,-7.013024389743804932e-02,-6.111191213130950928e-02,4.350269585847854614e-02,-3.642295673489570618e-02,3.512064367532730103e-02,-8.996631018817424774e-03,-1.195259094238281250e-01,7.998793572187423706e-02,-8.404904976487159729e-03,1.235801056027412415e-01,-1.266906112432479858e-01,5.337386578321456909e-02,9.178373217582702637e-02,-1.690416038036346436e-02,-1.132288202643394470e-01,1.578132249414920807e-02,3.262903913855552673e-02,-9.935648180544376373e-03,-8.194340765476226807e-02,-9.537852555513381958e-02,-2.934598550200462341e-02,6.921449303627014160e-02,1.247622072696685791e-01,-4.301834106445312500e-02,2.825186401605606079e-02,1.617620326578617096e-02,1.706313225440680981e-03,-1.014752662740647793e-03,1.100180577486753464e-02,-1.092218235135078430e-01,9.484916180372238159e-02,-2.149496413767337799e-02,1.606475189328193665e-02,-6.722229719161987305e-02,-5.976611748337745667e-02,-1.267743855714797974e-02,-4.002514109015464783e-02,7.179041951894760132e-02,-6.073583289980888367e-02,7.787682861089706421e-02,-7.274761050939559937e-02,3.534558787941932678e-02,7.615555077791213989e-02,1.220443397760391235e-01,-9.965756535530090332e-02,3.528066352009773254e-02,2.133762650191783905e-02,7.915236800909042358e-02,-7.166112214326858521e-02,-1.290981322526931763e-01,3.057087399065494537e-02,1.364095509052276611e-01,-8.096216619014739990e-02,-3.444249927997589111e-02,-1.221098750829696655e-01,5.158499348908662796e-03,-3.883146494626998901e-02,3.557755798101425171e-02,8.933421224355697632e-02,-3.967367112636566162e-02,7.194757461547851562e-02,-3.019200637936592102e-03,-1.377466470003128052e-01,4.827846214175224304e-02,1.084864288568496704e-01,-3.853779286146163940e-02,7.321026176214218140e-02,1.141470074653625488e-01,3.878357633948326111e-02,-1.188958287239074707e-01,-2.960637956857681274e-02,-7.302658259868621826e-02,-5.315254256129264832e-02,-1.742156222462654114e-02,9.493501484394073486e-02,-1.273090988397598267e-01,-1.091528087854385376e-01,1.137156859040260315e-01,1.331691592931747437e-01,-2.677758410573005676e-02,5.445409938693046570e-02,-3.807416185736656189e-02,6.891291588544845581e-02,1.177328750491142273e-01,-1.018346659839153290e-02,2.497877553105354309e-02,5.155718699097633362e-02,-8.818022161722183228e-02,8.963409066200256348e-02,-5.447296798229217529e-02,-7.192690670490264893e-02,1.651112362742424011e-02,6.211581826210021973e-02,4.799682274460792542e-02,-2.903036959469318390e-02,1.090021245181560516e-02,-9.164457023143768311e-02,9.317912906408309937e-02,8.065008372068405151e-02,-1.073932275176048279e-02,-5.415520165115594864e-03,-2.852697297930717468e-02,9.778688848018646240e-02,1.744973473250865936e-02,-9.724330902099609375e-02,7.708489894866943359e-02,-3.884692490100860596e-02,-2.348669571802020073e-03,-7.551898062229156494e-02,4.279307648539543152e-02,-1.841367036104202271e-02,4.784546792507171631e-02,-8.115484565496444702e-02,1.635927893221378326e-02,6.974989920854568481e-02,4.903812706470489502e-02,5.183966457843780518e-02,-3.170507773756980896e-02,-5.865032318979501724e-03,8.188755065202713013e-02,1.018035262823104858e-01,2.628499350976198912e-04,6.389370560646057129e-02,5.235311388969421387e-02,8.256360888481140137e-02,5.642428994178771973e-02,2.160156518220901489e-02,3.457121178507804871e-02,6.806754320859909058e-02,1.031546890735626221e-01,-1.756953448057174683e-02,4.892051219940185547e-02,2.155729755759239197e-02,8.171692490577697754e-02,2.622395381331443787e-02,-8.334632217884063721e-02,-9.617225080728530884e-02,1.780081167817115784e-02,-1.344666909426450729e-02,6.336749996989965439e-03,6.188239436596632004e-03,5.091402679681777954e-02,-1.893644779920578003e-02,-6.538967788219451904e-02,-1.122567281126976013e-01,1.798990648239850998e-03,4.837072640657424927e-02,7.068017125129699707e-02,3.796707466244697571e-02,2.157934941351413727e-02,8.242161571979522705e-02,4.136281087994575500e-02,1.200699433684349060e-01,8.626143634319305420e-02,7.837283611297607422e-02,-5.504906550049781799e-02,6.526855379343032837e-02,1.044607684016227722e-01,5.188483372330665588e-02,1.060265954583883286e-02,1.143397092819213867e-01,1.061049178242683411e-01,7.446493208408355713e-02,3.973881714046001434e-03,1.792436651885509491e-02,6.360996514558792114e-02,1.283852290362119675e-02,-3.234062343835830688e-02,-7.617028057575225830e-02,2.454427443444728851e-02,-7.443760056048631668e-03,4.230885300785303116e-03,-1.847621984779834747e-02,-1.655211299657821655e-02,1.082954555749893188e-02,1.886771805584430695e-02,-6.415072828531265259e-02,6.269557774066925049e-02,1.132622957229614258e-01,-4.875773191452026367e-02,-2.333141677081584930e-02,8.604062348604202271e-02,2.406286261975765228e-02,8.331184834241867065e-02,5.422554537653923035e-02,-7.161153852939605713e-02,-6.891410797834396362e-02,9.819220006465911865e-02,-1.707901060581207275e-02,-7.591158151626586914e-03,4.036570340394973755e-02,-2.975920960307121277e-02,-5.469243973493576050e-02,-3.779352828860282898e-02,1.534555666148662567e-02,6.687380373477935791e-02,1.511932536959648132e-02,2.185261249542236328e-02,5.891600623726844788e-02,-6.518284976482391357e-02,-4.380573332309722900e-02,1.101269572973251343e-02,-9.409061074256896973e-02,-8.234579861164093018e-02,-5.059783905744552612e-02,2.949744276702404022e-02,-2.072067931294441223e-02,-4.771465435624122620e-02,-5.187325552105903625e-02,7.425809651613235474e-02,-2.532833069562911987e-02,-6.352310627698898315e-02,-5.131118744611740112e-02,-2.085985802114009857e-02,8.479044586420059204e-02,-8.691521733999252319e-02,2.623506821691989899e-02,3.186085447669029236e-02,-8.638627827167510986e-03,9.311188012361526489e-02,-3.872816637158393860e-02,6.395885348320007324e-02,-3.195767849683761597e-02,3.585076332092285156e-02,-2.159611321985721588e-02,-1.874876953661441803e-02,-5.145405605435371399e-02,-5.310043320059776306e-02,-7.078467309474945068e-02,1.874827779829502106e-02,4.607601836323738098e-02,1.206495687365531921e-01,3.180980682373046875e-03,-1.014405339956283569e-01,-3.209278360009193420e-02,-6.906434148550033569e-02,-3.973156958818435669e-02,-3.416771814227104187e-02
1.094764564186334610e-03,-2.720061689615249634e-03,-5.338994413614273071e-02,-6.981623172760009766e-02,-1.206057611852884293e-02,7.882295176386833191e-03,4.581341892480850220e-02,5.423087254166603088e-02,-5.964291840791702271e-02,9.110762178897857666e-02,6.867423653602600098e-02,8.164008706808090210e-02,-7.048863917589187622e-02,9.888874739408493042e-02,-1.888820342719554901e-02,-3.237254219129681587e-03,2.558216080069541931e-02,3.587779402732849121e-02,3.691318258643150330e-02,1.293362025171518326e-02,1.566386222839355469e-02,1.230541318655014038e-01,1.024238616228103638e-01,5.410449579358100891e-02,1.068109944462776184e-01,9.414431452751159668e-02,3.593220189213752747e-02,9.970177710056304932e-02,4.459650442004203796e-02,6.847789883613586426e-02,3.814087808132171631e-02,7.728832215070724487e-02,1.750610396265983582e-02,-3.421501815319061279e-02,-2.826628834009170532e-02,-5.558333545923233032e-02,-2.188337035477161407e-02,-5.959246680140495300e-02,-2.980551123619079590e-02,1.354814320802688599e-01,6.340339034795761108e-02,8.783023059368133545e-02,-2.649516984820365906e-02,-6.637081503868103027e-02,-2.691011875867843628e-02,-6.800162047147750854e-02,8.552368730306625366e-02,-1.267380453646183014e-02,7.135515660047531128e-02,1.035237461328506470e-01,-6.929974257946014404e-02,-6.586005538702011108e-02,-1.482235919684171677e-02,1.203830018639564514e-01,-4.712837748229503632e-03,8.752682805061340332e-02,4.471512511372566223e-02,3.227762877941131592e-02,5.430896766483783722e-03,-2.938092499971389771e-02,-1.900400593876838684e-02,7.510276138782501221e-02,1.204716861248016357e-01,2.727866359055042267e-02,-2.123641315847635269e-03,7.638443261384963989e-02,2.952346205711364746e-02,5.473704636096954346e-02,-5.707875266671180725e-02,-3.565454110503196716e-02,-6.375353317707777023e-03,-1.332695363089442253e-03,5.731696262955665588e-02,4.097204655408859253e-02,-3.990169242024421692e-02,6.499871611595153809e-02,1.224571987986564636e-01,8.124860376119613647e-02,3.016854450106620789e-02,1.441200971603393555e-01,5.687315762042999268e-02,4.891911521553993225e-03,-6.098984181880950928e-02,7.303038239479064941e-02,1.036429032683372498e-01,8.483520895242691040e-02,7.484673708677291870e-02,-3.914815187454223633e-02,-3.574036061763763428e-02,4.627896845340728760e-02,5.225697168498300016e-05,1.553868409246206284e-02,9.071809798479080200e-02,8.378346264362335205e-02,-3.595011308789253235e-02,-5.424545705318450928e-02,-3.105237521231174469e-02,7.249078899621963501e-02,1.094039753079414368e-01,-7.412440329790115356e-02,4.852522164583206177e-02,9.665119647979736328e-02,1.114328801631927490e-01,1.301888525485992432e-01,4.708623141050338745e-02,9.013900905847549438e-02,1.063323915004730225e-01,8.932115882635116577e-02,-1.234280597418546677e-02,5.467879772186279297e-02,-3.199486806988716125e-02,4.869141057133674622e-02,-6.724212318658828735e-02,-2.400760725140571594e-02,-8.278427273035049438e-02,5.534857138991355896e-02,3.263906762003898621e-02,-1.148566254414618015e-03,1.102278605103492737e-01,-8.123125135898590088e-02,8.150994032621383667e-02,1.132038608193397522e-02,8.616936206817626953e-02,-4.970080405473709106e-02,-5.370697751641273499e-02,-5.626813694834709167e-02,1.220118403434753418e-01,-4.684374853968620300e-02,8.701881766319274902e-02,-7.403069175779819489e-03,2.890229411423206329e-02,-1.555060874670743942e-02,-5.912186577916145325e-02,2.799255587160587311e-02,-2.501103281974792480e-02,-5.584422126412391663e-02,8.007817715406417847e-02,-1.528918277472257614e-02,-7.945082336664199829e-02,-7.503994554281234741e-02,7.111752778291702271e-02,2.622451633214950562e-02,6.555967777967453003e-02,-1.002803593873977661e-01,8.277656137943267822e-02,3.872142732143402100e-02,-3.692631423473358154e-02,-5.102702602744102478e-02,-6.875181943178176880e-02,-7.049113512039184570e-03,-1.764384657144546509e-02,-8.364857733249664307e-02,4.260896239429712296e-03,-6.159399054013192654e-04,-8.870879560708999634e-02,3.780483454465866089e-02,9.305792301893234253e-02,-4.398815333843231201e-02,9.109244495630264282e-02,-6.421216577291488647e-02,1.586636528372764587e-02,6.118189543485641479e-02,4.558731801807880402e-03,-4.887466132640838623e-02,6.175920367240905762e-03,-6.297028064727783203e-02,1.272755209356546402e-02,1.008616536855697632e-01,-1.623817533254623413e-02,3.345686569809913635e-02,5.023459345102310181e-02,-9.431321918964385986e-02,7.223678380250930786e-02,3.551141824573278427e-03,-7.524050772190093994e-02,-5.951939150691032410e-02,-9.011546522378921509e-02,-3.673826903104782104e-02,-2.676726132631301880e-02,-7.694889791309833527e-03,1.035900712013244629e-01,1.005507167428731918e-02,5.778389796614646912e-02,-6.111142411828041077e-02,-5.499015003442764282e-02,-8.930319547653198242e-02,6.152867525815963745e-02,-4.730578139424324036e-02,6.188374385237693787e-02,2.710246015340089798e-03,1.219139099121093750e-01,-2.124907262623310089e-02,-8.072643727064132690e-02,2.541942894458770752e-02,-4.473354294896125793e-02,9.904765337705612183e-02,-2.881370484828948975e-03,3.819895535707473755e-02,-4.599794372916221619e-02,8.278096467256546021e-02,1.655828021466732025e-02,-2.314257994294166565e-02,-2.460768818855285645e-02,-5.804419517517089844e-02,7.007041573524475098e-02,9.500513970851898193e-02,9.340252727270126343e-03,2.957814559340476990e-02,8.022784441709518433e-02,6.164703052490949631e-03,-9.660162031650543213e-02,8.078902959823608398e-02,9.016809612512588501e-02,1.680026575922966003e-02,6.829919666051864624e-02,8.235037326812744141e-02,-2.070503309369087219e-02,2.803585305809974670e-02,8.193303644657135010e-02,-2.891095587983727455e-03,8.400570601224899292e-02,7.866437733173370361e-02,-7.887225598096847534e-02,1.128811463713645935e-01,8.307535201311111450e-02,7.154208421707153320e-02,8.189133554697036743e-02,4.963567480444908142e-02,-3.815713804215192795e-03,4.873093217611312866e-02,1.000398173928260803e-01,-5.432220175862312317e-02,7.293085753917694092e-02,6.649728864431381226e-02,4.276981204748153687e-02,9.043261408805847168e-03,4.693778231739997864e-02,8.759196102619171143e-02,-2.850189572200179100e-03,-4.137574136257171631e-02,3.954629600048065186e-02,-8.966167271137237549e-02,-6.272748112678527832e-02,-2.355247177183628082e-02,-4.716104269027709961e-02,3.258561715483665466e-02,4.298967868089675903e-02,3.850223869085311890e-02,-6.978648155927658081e-02,-5.883668363094329834e-02,7.830519974231719971e-02,-1.035338789224624634e-01,7.327004522085189819e-02,-6.485264003276824951e-02,-3.051476366817951202e-02,-3.164450824260711670e-02,6.921686697751283646e-03,6.239798665046691895e-02,9.401851147413253784e-02,4.036707431077957153e-02,-7.558111101388931274e-02,-6.815817952156066895e-02,2.455510757863521576e-02,-8.588312566280364990e-02,1.135907694697380066e-01,-2.532210387289524078e-02,-1.256758868694305420e-01,-6.097019836306571960e-02,-3.810026869177818298e-02,-1.227111220359802246e-01,-1.155928988009691238e-02,-7.889418303966522217e-02,5.246055126190185547e-02,-9.378328919410705566e-02,-1.186849921941757202e-01,-8.524123579263687134e-02,-1.362516433000564575e-01,-6.494293361902236938e-02,-7.186828553676605225e-02,-2.520023658871650696e-02,-3.959495201706886292e-02,4.943242296576499939e-02,1.172046810388565063e-01,-4.005101695656776428e-02,-6.977304071187973022e-02,1.041880548000335693e-01,-5.461697652935981750e-02,-9.591256268322467804e-03,-3.211130620911717415e-03,-7.592114806175231934e-02,7.190129905939102173e-02,-6.493368744850158691e-02,6.392272561788558960e-02,-1.969262212514877319e-02,1.140718832612037659e-01,-2.526440471410751343e-02,2.814512886106967926e-02,6.455785781145095825e-02,-1.412907540798187256e-01,-1.097670048475265503e-01,3.320001438260078430e-02,-1.143902316689491272e-01,1.258223596960306168e-02,-2.323312312364578247e-02,1.149871852248907089e-02,1.199889462441205978e-02,4.756629094481468201e-02,1.750280708074569702e-02,4.969409201294183731e-03,8.851262181997299194e-02,-1.112442556768655777e-02,-3.037356212735176086e-02,-1.243407651782035828e-02,5.401123687624931335e-02,3.298727795481681824e-02,-4.567704722285270691e-02,-5.089074000716209412e-02,8.395995944738388062e-02,-1.380986273288726807e-01,5.905156582593917847e-02,1.464482303708791733e-02,-3.501131723169237375e-04,3.773673623800277710e-02,-8.964382857084274292e-02,6.265725195407867432e-02,4.057383537292480469e-02,3.092673793435096741e-02,-1.252308189868927002e-01,1.243149599758908153e-04,1.093351319432258606e-01,-1.578616723418235779e-02,4.023255780339241028e-02,-2.518275193870067596e-02,-1.877923496067523956e-02,1.085161119699478149e-01,-5.037898942828178406e-02,-1.237558498978614807e-01,4.789524525403976440e-02,-8.065425790846347809e-03,-7.083637267351150513e-02,9.811067581176757812e-02,-4.845660179853439331e-02,-7.361331582069396973e-02,-6.059170886874198914e-02,3.989125415682792664e-02,-3.774752095341682434e-02,5.782578885555267334e-02,8.703657239675521851e-02,5.170454829931259155e-02,1.202656701207160950e-02,-1.852711103856563568e-02,4.000963270664215088e-02,-3.960704803466796875e-02,-1.118379086256027222e-01,5.021755769848823547e-02,-1.195786818861961365e-01,1.282932162284851074e-01,7.217636704444885254e-02,-6.189369410276412964e-02,5.203610658645629883e-02,-4.211093485355377197e-02,-1.175350397825241089e-01,2.520245127379894257e-02,5.663721263408660889e-02,-5.409336090087890625e-02,1.086346209049224854e-01,5.900363996624946594e-02,-3.099337406456470490e-02,-2.498604124411940575e-03,-7.189481705427169800e-02,-9.842196106910705566e-02,-3.557699918746948242e-02,-4.470585286617279053e-02,4.966789856553077698e-02,1.166961416602134705e-01,7.878825068473815918e-02,-5.958548560738563538e-02,3.478220477700233459e-02,2.898233011364936829e-02,1.034567803144454956e-01,-7.020032405853271484e-02,7.214693818241357803e-03,-5.909516662359237671e-02,-3.728767856955528259e-02,9.658984839916229248e-02,8.317704498767852783e-02,-4.245117306709289551e-02,7.051089406013488770e-02,3.742048749700188637e-03,-4.408517852425575256e-02,6.136923655867576599e-02,6.315583735704421997e-02,5.718389526009559631e-03,7.735566049814224243e-02,8.605691045522689819e-02,-2.834839187562465668e-02,1.170921400189399719e-01,5.438260361552238464e-02,7.756613194942474365e-02,-1.150123588740825653e-02,3.381464257836341858e-02,1.023947494104504585e-03,5.930388718843460083e-02,1.064825057983398438e-01,5.660146474838256836e-02,8.860138058662414551e-02,-8.754937350749969482e-02,-3.885870426893234253e-02,9.738500416278839111e-02,7.614255882799625397e-03,-1.758346147835254669e-02,1.216934025287628174e-01,-5.197779089212417603e-02,2.786444686353206635e-02,1.126338094472885132e-01,2.345380932092666626e-02,-2.834276109933853149e-02,-8.546452969312667847e-02,4.933995380997657776e-02,-9.712271392345428467e-02,-7.519754581153392792e-03,1.592876575887203217e-02,-5.920039117336273193e-02,-7.192430645227432251e-02,-1.112959757447242737e-01,-4.100233316421508789e-02,8.044087886810302734e-02,-8.521474897861480713e-02,1.025276780128479004e-01,-4.579404741525650024e-02,-7.361914031207561493e-03,-2.257242985069751740e-02,-5.098294094204902649e-02,-1.718359068036079407e-02,2.323441021144390106e-02,7.271783798933029175e-02,-1.975964196026325226e-02,4.700846970081329346e-02,6.393577158451080322e-02,-7.431586831808090210e-02,4.310128465294837952e-02,5.921017006039619446e-02,-3.125991299748420715e-02,-6.245768815279006958e-02,-4.973591119050979614e-02,-4.566597193479537964e-02,1.018159762024879456e-01,8.753796666860580444e-02,-4.280223976820707321e-03,1.345372498035430908e-01,3.054977580904960632e-02,-5.499950796365737915e-02,1.114116013050079346e-01,-8.534415811300277710e-02,5.421741679310798645e-02,1.328734681010246277e-02,-4.772613942623138428e-02,-1.721037179231643677e-02,1.012655869126319885e-01,2.222264371812343597e-02,1.347606163471937180e-02,-3.065650910139083862e-02,-3.936609253287315369e-02,5.128508806228637695e-02,3.350580111145973206e-02,-1.965721324086189270e-02,5.454448610544204712e-02,-2.470712922513484955e-02,4.469942767173051834e-03,1.886269077658653259e-02,-5.754633247852325439e-02,4.488744772970676422e-03,-5.105325207114219666e-02,1.214057803153991699e-01,1.126794796437025070e-02,5.565970018506050110e-02,4.512401670217514038e-02,-2.706915326416492462e-02,-1.333074877038598061e-03,9.865641593933105469e-02,-5.146167799830436707e-02,-2.570932917296886444e-02,8.291788399219512939e-02,6.570339202880859375e-02,-8.151008747518062592e-03,6.848850101232528687e-02,7.242544554173946381e-03,5.281811207532882690e-02,-2.977967960759997368e-03,2.631914615631103516e-02,-5.086797475814819336e-02,8.368086814880371094e-02,-4.070850089192390442e-02,-3.058681264519691467e-02,4.913675785064697266e-02,-7.031586021184921265e-02,2.806314080953598022e-02,-5.425311997532844543e-02,2.296205051243305206e-02,-3.683681413531303406e-02,2.911235205829143524e-02,-3.276981040835380554e-02,1.714785955846309662e-02,3.921276330947875977e-02,-6.972202658653259277e-02,6.670680362731218338e-03,3.262833133339881897e-02,7.417990267276763916e-02,1.186284702271223068e-02,-6.417698413133621216e-02,-2.746454440057277679e-02,-5.374442785978317261e-02
6.991191953420639038e-02,2.721153572201728821e-02,1.038500070571899414e-01,4.050018638372421265e-02,4.527207091450691223e-02,-2.317456342279911041e-02,-3.469569981098175049e-02,3.367480123415589333e-03,4.296378046274185181e-02,5.530769377946853638e-02,-8.450025320053100586e-02,6.447266042232513428e-02,-1.068469807505607605e-01,8.439181745052337646e-02,3.256737720221281052e-03,3.545830771327018738e-02,-3.004720248281955719e-02,5.886750295758247375e-04,-1.097326204180717468e-01,6.429515779018402100e-02,8.020997047424316406e-02,-1.379153318703174591e-02,-4.827900230884552002e-02,5.567373335361480713e-02,1.055031716823577881e-01,8.394636958837509155e-02,-9.016926586627960205e-02,4.078360274434089661e-02,2.352164499461650848e-02,-1.797728426754474640e-02,4.238556325435638428e-02,6.577689200639724731e-02,1.974283903837203979e-02,-6.890120357275009155e-02,-6.324370205402374268e-02,-2.590398117899894714e-02,3.913861233741044998e-03,-4.457834362983703613e-02,5.889542400836944580e-02,2.344406023621559143e-02,-4.197256267070770264e-02,-4.610336571931838989e-02,-5.554232001304626465e-02,-7.743558287620544434e-02,-3.002669289708137512e-02,-9.375399351119995117e-02,3.884572908282279968e-02,7.979523390531539917e-02,7.371007651090621948e-02,4.519745707511901855e-02,-1.095070689916610718e-01,6.446301192045211792e-02,2.255669981241226196e-02,-1.048988699913024902e-01,3.205912560224533081e-02,1.144994050264358521e-03,-2.636920474469661713e-02,-9.553490579128265381e-02,1.061700060963630676e-01,7.628905121237039566e-03,1.322816312313079834e-02,-3.277345374226570129e-02,4.680386930704116821e-02,9.097085334360599518e-03,-2.119045145809650421e-02,6.913630664348602295e-02,1.002805009484291077e-01,2.861095033586025238e-02,-9.748835861682891846e-02,5.435754545032978058e-03,-4.205157514661550522e-03,1.331267319619655609e-02,8.867810666561126709e-02,-8.605849742889404297e-02,3.765159845352172852e-02,4.717512428760528564e-02,2.915698289871215820e-02,8.965571410953998566e-03,-6.380873918533325195e-02,3.229359909892082214e-02,-7.068642228841781616e-02,3.696925938129425049e-02,9.352214634418487549e-03,-1.073942482471466064e-01,-8.391001075506210327e-02,4.344312101602554321e-02,-8.903588354587554932e-02,4.332016780972480774e-02,4.228317365050315857e-02,-3.112201020121574402e-02,2.100778929889202118e-02,-6.582691520452499390e-02,4.152075387537479401e-03,-2.318562939763069153e-02,-1.219009142369031906e-02,7.127673923969268799e-02,-3.963215858675539494e-04,2.376410551369190216e-02,-6.854257732629776001e-02,8.600810915231704712e-02,-5.267989635467529297e-02,-2.086719870567321777e-02,-8.176858723163604736e-02,2.590856701135635376e-02,2.461488358676433563e-02,8.113607019186019897e-02,8.568245172500610352e-02,-3.774252161383628845e-02,-2.075733430683612823e-02,-2.914252318441867828e-02,5.658262595534324646e-02,-1.730012893676757812e-02,-5.776045098900794983e-02,3.547437489032745361e-02,3.789933770895004272e-02,5.678005889058113098e-02,-8.339741826057434082e-02,3.202119842171669006e-02,6.081262975931167603e-02,-1.209223829209804535e-02,-1.349943107925355434e-03,6.718190014362335205e-02,5.039915814995765686e-02,-9.967655874788761139e-03,7.632794231176376343e-02,4.664739593863487244e-03,-4.254722595214843750e-02,-2.361071296036243439e-03,2.873777784407138824e-02,9.587173350155353546e-03,-1.130771264433860779e-02,-1.005443371832370758e-02,1.099870279431343079e-01,6.905057281255722046e-02,-4.509464651346206665e-02,2.271660976111888885e-02,8.177343010902404785e-02,-7.027493417263031006e-02,6.418837606906890869e-02,1.127993911504745483e-01,-6.574287265539169312e-02,4.417373798787593842e-03,1.080411821603775024e-01,1.208264231681823730e-01,-1.255872752517461777e-02,8.507018536329269409e-02,-2.658212184906005859e-02,2.679803036153316498e-02,-5.788847804069519043e-02,-7.777310442179441452e-03,1.274727135896682739e-01,-5.822375789284706116e-02,2.263588085770606995e-02,1.125747896730899811e-02,9.511389769613742828e-03,1.006379798054695129e-01,1.045644804835319519e-01,-8.896345272660255432e-03,2.764776721596717834e-02,-7.603747770190238953e-03,-5.503447726368904114e-02,8.905670791864395142e-02,9.449170529842376709e-02,-1.659092865884304047e-02,1.176716461777687073e-01,4.758122190833091736e-02,1.321461200714111328e-01,-6.464441865682601929e-02,6.979664415121078491e-02,2.360578626394271851e-02,-7.349678780883550644e-03,3.384842723608016968e-02,1.132139116525650024e-01,1.044831499457359314e-01,-2.749755419790744781e-02,5.146628245711326599e-03,1.243926957249641418e-01,1.603136956691741943e-02,1.106338649988174438e-01,-4.580207541584968567e-02,1.186072528362274170e-01,3.432253375649452209e-02,6.411757320165634155e-02,7.495740801095962524e-02,-1.379841659218072891e-02,-1.124905236065387726e-02,2.580185886472463608e-03,1.153889223933219910e-01,9.206803143024444580e-02,1.121759340167045593e-01,4.477965831756591797e-02,3.095522709190845490e-02,5.084624886512756348e-02,1.188005693256855011e-02,-2.660467580426484346e-04,-2.548154070973396301e-02,1.018140092492103577e-01,1.163046956062316895e-01,7.210344076156616211e-02,1.063889786601066589e-01,9.695318341255187988e-02,-4.431016370654106140e-02,-4.794665798544883728e-02,2.012067101895809174e-02,-2.572862990200519562e-02,-3.671571239829063416e-02,6.746960431337356567e-02,4.800099134445190430e-02,7.933796197175979614e-02,1.977907307446002960e-02,-5.060933157801628113e-02,6.056424230337142944e-02,1.550072524696588516e-02,1.012478619813919067e-01,1.106193885207176208e-01,-9.561387449502944946e-02,1.054667960852384567e-02,7.550611346960067749e-02,1.210129633545875549e-01,1.346538811922073364e-01,4.488177131861448288e-03,5.680239945650100708e-02,-5.124098435044288635e-02,1.265718191862106323e-01,1.176411360502243042e-01,-7.496868818998336792e-02,6.601657718420028687e-02,-8.074332773685455322e-02,9.852977842092514038e-02,5.170895159244537354e-02,8.799991011619567871e-02,5.500283464789390564e-02,1.025666370987892151e-01,1.191562265157699585e-01,-5.329039320349693298e-02,8.555600047111511230e-02,8.921240270137786865e-02,-6.848933547735214233e-02,5.084509775042533875e-02,1.076094284653663635e-01,6.578273326158523560e-02,-3.019924275577068329e-02,3.417669981718063354e-02,-7.084560114890336990e-03,7.608535140752792358e-02,7.337558269500732422e-02,1.331031620502471924e-01,-1.639921031892299652e-02,-6.232097372412681580e-02,-3.172689303755760193e-02,1.337043493986129761e-01,-2.580415830016136169e-02,2.861976996064186096e-02,-2.389995940029621124e-02,5.610762163996696472e-02,-4.427850246429443359e-02,1.872463524341583252e-02,-6.296172738075256348e-02,2.178761735558509827e-02,7.863532006740570068e-02,5.470214784145355225e-02,5.083863437175750732e-02,-6.626788992434740067e-03,1.209789291024208069e-01,-7.572735846042633057e-02,3.114164061844348907e-02,-3.063284792006015778e-02,-2.833778224885463715e-02,1.159209460020065308e-01,1.038723364472389221e-01,1.955553703010082245e-02,6.832294166088104248e-02,-1.165070161223411560e-01,8.636208623647689819e-02,4.847558587789535522e-02,5.593555048108100891e-02,9.444351494312286377e-02,-4.877160862088203430e-02,8.408445119857788086e-02,5.959538370370864868e-02,5.829375609755516052e-02,-1.197772100567817688e-01,-5.965024232864379883e-03,-2.108965441584587097e-02,-1.618258282542228699e-02,1.989160664379596710e-02,-3.259374573826789856e-02,9.279606863856315613e-03,8.493291586637496948e-02,6.322328746318817139e-02,-5.262077972292900085e-02,2.365511655807495117e-02,-3.299282491207122803e-02,1.042929887771606445e-01,-7.850117981433868408e-02,4.759049788117408752e-02,-7.070892304182052612e-02,9.622716158628463745e-02,-3.894581645727157593e-02,7.109589129686355591e-02,9.027498215436935425e-02,7.887517858762294054e-05,3.518367931246757507e-02,3.026303602382540703e-03,-2.331493655219674110e-03,-1.264443993568420410e-01,-7.640601135790348053e-03,1.121283248066902161e-01,7.700339425355195999e-03,-1.092514470219612122e-01,-1.158999726176261902e-01,9.375590085983276367e-02,8.440580219030380249e-02,-1.247816830873489380e-01,4.402288421988487244e-02,8.671701699495315552e-02,-2.173311263322830200e-02,-7.452019024640321732e-03,-4.766190052032470703e-02,5.686159804463386536e-02,-1.290127187967300415e-01,1.026771739125251770e-01,7.731437683105468750e-02,3.435137122869491577e-02,-1.317949146032333374e-01,-1.256233304738998413e-01,3.119809739291667938e-02,-3.822201862931251526e-02,1.151047572493553162e-01,-8.120649307966232300e-02,4.151112213730812073e-02,8.173689246177673340e-02,-7.593742571771144867e-03,4.173335805535316467e-02,-8.900752663612365723e-02,1.189773976802825928e-01,4.134472087025642395e-02,1.180391311645507812e-01,-3.165439516305923462e-02,5.454920232295989990e-02,-1.325826644897460938e-01,-1.030136048793792725e-01,-2.595401182770729065e-02,1.979869045317173004e-02,-1.271404791623353958e-02,1.245671976357698441e-02,-6.497236341238021851e-02,4.934616014361381531e-02,-8.840425312519073486e-02,6.287208944559097290e-02,1.167438104748725891e-01,2.339523285627365112e-02,-4.438610002398490906e-02,-6.542264670133590698e-02,-1.683334261178970337e-02,-3.020535456016659737e-03,-7.900083810091018677e-02,-6.840029358863830566e-02,-5.444432422518730164e-02,9.507950395345687866e-03,8.589625358581542969e-03,4.458753019571304321e-02,4.532840475440025330e-02,2.863041870296001434e-02,1.016765385866165161e-01,-7.194804400205612183e-02,-9.262203425168991089e-02,3.971890360116958618e-02,2.145231328904628754e-02,1.190113201737403870e-01,2.343230508267879486e-02,5.045953392982482910e-02,5.397286266088485718e-02,5.002418532967567444e-02,-9.700361639261245728e-02,-1.013937368988990784e-01,5.505212768912315369e-02,-1.021318286657333374e-01,9.049127995967864990e-02,-6.791007518768310547e-02,-4.249912127852439880e-02,-5.325683951377868652e-02,1.987344212830066681e-02,-2.265272196382284164e-03,4.163569957017898560e-02,-4.565136507153511047e-03,1.586211100220680237e-02,4.519033432006835938e-02,2.922876924276351929e-02,-9.809990413486957550e-03,1.863968372344970703e-02,-2.722232369706034660e-03,4.827063903212547302e-02,4.637674614787101746e-02,-7.318552583456039429e-02,3.642426058650016785e-02,2.525224722921848297e-02,-1.742745004594326019e-02,-5.787736922502517700e-02,4.423985257744789124e-02,3.594103455543518066e-02,3.040061704814434052e-02,1.798713579773902893e-02,-4.758559539914131165e-02,-4.698704183101654053e-02,9.099902957677841187e-02,1.097344011068344116e-01,-8.867876976728439331e-02,9.480585344135761261e-03,2.019518613815307617e-02,-3.091874346137046814e-02,5.720598995685577393e-02,3.237603604793548584e-02,-5.875923857092857361e-02,6.156926229596138000e-02,6.953403353691101074e-04,5.095655471086502075e-02,5.285084992647171021e-02,2.634930051863193512e-02,3.255213797092437744e-02,1.153310313820838928e-01,-3.109662234783172607e-02,-7.800032198429107666e-02,-7.217763364315032959e-02,-3.350823000073432922e-02,-8.829087764024734497e-02,-1.018642261624336243e-01,-8.033324033021926880e-02,-1.594074652530252934e-03,-6.476777791976928711e-02,9.670214727520942688e-03,-6.213521957397460938e-02,-7.428874820470809937e-02,8.533111959695816040e-02,6.292314827442169189e-02,-5.803115665912628174e-02,-5.927380546927452087e-02,3.637082874774932861e-02,-3.768466785550117493e-02,-1.059675514698028564e-01,-3.934079036116600037e-02,-2.243706490844488144e-03,-1.935964263975620270e-02,7.079730182886123657e-02,6.847923249006271362e-02,6.640288233757019043e-02,1.071413382887840271e-01,-7.975475490093231201e-02,2.575568854808807373e-02,1.157622784376144409e-01,4.325430095195770264e-02,-1.719739660620689392e-02,-6.047062575817108154e-02,2.690668776631355286e-02,3.340850770473480225e-02,-9.064146876335144043e-02,-7.487117499113082886e-02,8.483181893825531006e-02,-3.980125859379768372e-02,-7.462296634912490845e-02,8.139722049236297607e-02,-5.099260807037353516e-02,7.327458262443542480e-02,1.316866129636764526e-01,9.774871170520782471e-03,3.933783993124961853e-02,-5.369525402784347534e-02,-8.633202314376831055e-02,1.168428808450698853e-01,1.104151178151369095e-02,2.112566865980625153e-02,6.699457764625549316e-02,1.794896647334098816e-02,-7.098366320133209229e-02,-1.664118841290473938e-02,-8.840163052082061768e-02,-7.901775836944580078e-02,1.115997880697250366e-01,6.187576800584793091e-02,6.156180799007415771e-02,-3.217026963829994202e-02,4.813491180539131165e-02,5.959265679121017456e-02,-2.011531405150890350e-02,9.285616874694824219e-02,-8.977568149566650391e-02,-3.594201058149337769e-02,5.382184311747550964e-02,8.701162040233612061e-02,1.103281006217002869e-01,-5.832784622907638550e-02,-6.318609416484832764e-02,-7.094810903072357178e-02,3.139195218682289124e-02,-9.065344184637069702e-02,4.298551473766565323e-03,5.095489323139190674e-02,9.325493127107620239e-02,6.338851898908615112e-02,5.366519838571548462e-02,-1.018014699220657349e-01,-6.119330599904060364e-02,-4.235119000077247620e-02,1.111669689416885376e-01,-7.370226085186004639e-02,-3.461838141083717346e-02,-9.067636728286743164e-02,2.684746868908405304e-02,7.120497175492346287e-04,-5.535743758082389832e-02,3.496023640036582947e-02,1.112861111760139465e-01
9.457460790872573853e-02,-8.956242352724075317e-03,3.846342489123344421e-02,-1.236550137400627136e-02,-4.258500039577484131e-02,1.753588952124118805e-02,6.422598846256732941e-03,7.202948443591594696e-03,9.944719076156616211e-02,5.018480122089385986e-02,-1.182582415640354156e-02,4.368264973163604736e-02,-3.034548088908195496e-02,1.510323733091354370e-01,-1.272165565751492977e-03,9.254009276628494263e-02,-3.830991685390472412e-02,-4.995325207710266113e-02,-1.869828999042510986e-02,1.242677420377731323e-01,6.604428589344024658e-02,-5.038909614086151123e-02,-2.956973761320114136e-02,-8.331208676099777222e-02,1.033294871449470520e-01,9.543062746524810791e-02,5.454043671488761902e-02,2.368815056979656219e-02,3.843548521399497986e-02,2.088247239589691162e-02,-2.086088620126247406e-02,-6.940289749763906002e-04,-4.611860588192939758e-02,1.155990269035100937e-02,-7.138916850090026855e-02,-3.855955600738525391e-02,3.774502128362655640e-02,1.134747341275215149e-01,1.212433502078056335e-01,-1.074867229908704758e-02,9.488271921873092651e-02,1.073047518730163574e-01,1.160079054534435272e-02,1.465834584087133408e-02,8.346989750862121582e-02,4.470083117485046387e-02,3.452156484127044678e-02,-4.179105907678604126e-02,-1.910370960831642151e-02,1.061019450426101685e-01,2.378559485077857971e-02,-2.824521251022815704e-02,1.299685388803482056e-01,1.234217286109924316e-01,-6.887076795101165771e-02,3.274329751729965210e-02,3.778929263353347778e-02,-7.045071106404066086e-03,-1.467463187873363495e-02,-4.020161926746368408e-02,-5.509716272354125977e-02,1.714703277684748173e-03,4.416681453585624695e-02,-8.597382344305515289e-03,-2.494098059833049774e-02,4.800683818757534027e-03,-7.957501709461212158e-02,6.735271215438842773e-02,2.546396479010581970e-02,4.237277433276176453e-02,8.967375010251998901e-02,8.626662194728851318e-02,4.965121671557426453e-02,-4.155274853110313416e-02,-6.011877954006195068e-02,3.866961598396301270e-02,-2.523358911275863647e-02,6.686396896839141846e-02,-3.453138470649719238e-02,-2.241439558565616608e-02,-2.672898024320602417e-02,1.151605546474456787e-01,1.172899529337882996e-01,-5.838106572628021240e-02,7.931598275899887085e-02,8.603604882955551147e-02,-4.739001393318176270e-02,8.377993106842041016e-02,-5.450341477990150452e-02,1.129634957760572433e-02,1.174006611108779907e-01,7.458338141441345215e-02,8.483436703681945801e-02,-1.438494864851236343e-02,5.224963184446096420e-03,1.333077102899551392e-01,-6.010176613926887512e-03,3.482893481850624084e-02,9.793320298194885254e-02,-7.398267090320587158e-02,-2.293958701193332672e-02,-5.539863836020231247e-03,9.369913488626480103e-02,-3.216791525483131409e-02,7.938140630722045898e-02,9.597959369421005249e-02,-5.740167200565338135e-02,6.106171756982803345e-02,-1.503853406757116318e-02,-4.323165118694305420e-02,1.188265085220336914e-01,3.180847689509391785e-02,1.232745349407196045e-01,1.257544904947280884e-01,-3.507976187393069267e-03,4.452751576900482178e-02,1.455871388316154480e-02,2.134357951581478119e-02,1.572562963701784611e-03,-5.788059532642364502e-02,7.377024739980697632e-02,5.360602959990501404e-02,9.004151076078414917e-02,-1.122688502073287964e-01,9.805034846067428589e-02,2.586258761584758759e-02,9.559375792741775513e-02,4.560373350977897644e-02,-4.507786780595779419e-02,-8.664979040622711182e-02,-1.017678752541542053e-01,-7.166513800621032715e-02,8.583340793848037720e-02,-1.098846495151519775e-01,-3.807288780808448792e-02,-5.838926881551742554e-02,9.028162062168121338e-02,-2.272028662264347076e-02,9.053355082869529724e-03,-4.504896327853202820e-02,8.243036270141601562e-02,-9.638987481594085693e-02,1.955170370638370514e-02,-6.912147998809814453e-02,5.158763006329536438e-02,-7.360828667879104614e-02,-4.763117805123329163e-02,7.897383719682693481e-02,1.862982474267482758e-02,-1.390770729631185532e-02,-6.100988946855068207e-03,8.374604582786560059e-02,-7.082557678222656250e-02,-8.055881410837173462e-02,5.187849327921867371e-02,-3.225179761648178101e-02,1.844713464379310608e-02,1.555078476667404175e-02,-3.044654801487922668e-02,-6.184186786413192749e-02,-2.508815377950668335e-03,-7.162808440625667572e-03,-1.878035627305507660e-02,-5.974249914288520813e-02,-1.019739657640457153e-01,6.578242406249046326e-03,1.532474439591169357e-02,7.415348291397094727e-02,5.716826394200325012e-02,-5.040780082345008850e-02,-5.780618265271186829e-02,3.639877960085868835e-02,-6.687915325164794922e-02,2.894510887563228607e-02,1.407986599951982498e-02,-9.677641838788986206e-02,-6.234216317534446716e-02,9.292349964380264282e-02,-4.501838982105255127e-02,1.326708775013685226e-02,-8.031512796878814697e-02,7.162921130657196045e-02,2.687769592739641666e-04,5.372166261076927185e-02,-1.823008246719837189e-02,-6.165800988674163818e-02,-4.532068222761154175e-02,1.125747617334127426e-02,-1.281917281448841095e-02,-2.763927169144153595e-02,6.354255229234695435e-02,5.837156623601913452e-02,2.420947887003421783e-02,5.730266496539115906e-02,-3.021889925003051758e-02,-1.107524037361145020e-01,8.788568526506423950e-02,7.786678522825241089e-02,4.673825204372406006e-02,8.527516573667526245e-02,-2.799632400274276733e-02,-3.823022544384002686e-02,-8.920847624540328979e-02,6.004519015550613403e-02,-1.018684431910514832e-01,5.261230468750000000e-02,7.867341488599777222e-02,1.212666481733322144e-01,8.371949195861816406e-02,2.386919036507606506e-02,-5.929909273982048035e-02,-7.235793769359588623e-02,-5.218223109841346741e-02,-1.007548533380031586e-02,6.737065315246582031e-02,-5.849625542759895325e-02,7.164038717746734619e-02,1.120594050735235214e-02,-6.181874871253967285e-02,-1.634440943598747253e-02,4.967535287141799927e-02,2.055208757519721985e-02,-2.636953443288803101e-02,9.697853028774261475e-02,8.433242887258529663e-02,8.257559500634670258e-03,-6.456022709608078003e-02,-5.013838410377502441e-02,-7.648685574531555176e-02,5.478009581565856934e-02,-9.445711225271224976e-02,3.819082677364349365e-02,-2.045810036361217499e-02,-8.358797430992126465e-02,-8.667641319334506989e-03,8.005951344966888428e-02,-1.354029029607772827e-02,-1.933752931654453278e-02,-5.810341238975524902e-02,3.314681723713874817e-02,8.216459304094314575e-02,-4.216772317886352539e-02,2.805636264383792877e-02,7.106933742761611938e-02,5.447996407747268677e-02,-5.170977115631103516e-02,6.135670468211174011e-02,-8.891617506742477417e-02,-1.510654762387275696e-02,-1.085364446043968201e-01,6.042245030403137207e-02,6.982231140136718750e-02,-8.483992516994476318e-02,8.727879077196121216e-02,-5.702432990074157715e-02,4.031472280621528625e-02,-8.875140547752380371e-02,9.803196042776107788e-02,3.402558341622352600e-02,-8.587058633565902710e-02,-1.131750121712684631e-01,2.407213114202022552e-02,-5.709394812583923340e-03,-8.058434724807739258e-02,1.537900604307651520e-02,4.254588857293128967e-02,6.176723167300224304e-02,-4.363781586289405823e-02,-8.362543769180774689e-03,-1.971163228154182434e-02,-7.644578814506530762e-02,-1.499274373054504395e-02,-6.055196002125740051e-02,-1.258910354226827621e-02,-5.476285889744758606e-02,-4.533208906650543213e-02,5.438681319355964661e-02,-3.217593580484390259e-02,4.524920880794525146e-02,8.467810228466987610e-03,5.624563246965408325e-02,-1.262175012379884720e-02,3.850005567073822021e-02,8.090075105428695679e-02,2.138270437717437744e-02,9.009364992380142212e-02,4.568495601415634155e-02,-6.466384511440992355e-03,-1.087532639503479004e-01,-1.194534078240394592e-02,8.199004828929901123e-02,2.264434657990932465e-02,3.650936111807823181e-02,4.368000105023384094e-02,-5.277046933770179749e-03,-9.109771810472011566e-03,-1.062238402664661407e-02,-4.887227341532707214e-02,-1.212728396058082581e-02,4.742594028357416391e-04,-9.675735235214233398e-02,-2.299109287559986115e-02,1.507596205919981003e-02,-8.764211833477020264e-02,-1.293060928583145142e-02,9.373154491186141968e-03,7.244556397199630737e-02,-5.483478307723999023e-03,-4.371147230267524719e-02,6.719914823770523071e-02,4.733303561806678772e-02,-2.475957758724689484e-02,-2.381534688174724579e-02,-1.421948778443038464e-03,-1.301414519548416138e-02,-2.767397649586200714e-02,7.998662441968917847e-02,1.762088946998119354e-02,-8.729162812232971191e-02,-4.430270195007324219e-02,-2.333330549299716949e-02,-1.478896941989660263e-03,-5.774655193090438843e-02,-2.213906683027744293e-02,4.604750126600265503e-02,2.236682362854480743e-02,-1.046883687376976013e-01,6.055838987231254578e-02,-4.979245737195014954e-02,2.622823230922222137e-02,1.163370814174413681e-02,-6.636351346969604492e-02,-2.567396685481071472e-02,-8.855979889631271362e-02,1.079311445355415344e-01,-4.337623342871665955e-02,-9.642413258552551270e-02,1.734837703406810760e-02,8.720926195383071899e-02,4.199266806244850159e-02,3.467896312940865755e-04,1.085702180862426758e-01,-1.159955784678459167e-01,1.354896835982799530e-02,-1.441841106861829758e-02,5.137284472584724426e-02,-9.421261399984359741e-02,1.907328702509403229e-02,5.252050235867500305e-03,-1.132763996720314026e-01,2.074517309665679932e-02,-4.190747439861297607e-02,-5.663654208183288574e-02,-7.098757196217775345e-03,9.081248193979263306e-02,1.848130114376544952e-02,-3.096332587301731110e-02,4.649196565151214600e-02,4.352007061243057251e-02,7.192302495241165161e-02,7.079916447401046753e-02,6.288351025432348251e-03,6.509753316640853882e-02,-7.667920738458633423e-02,-7.883270271122455597e-03,5.894192680716514587e-02,5.703029781579971313e-02,-1.245465651154518127e-01,-2.872397378087043762e-02,-1.070984825491905212e-02,-9.929313510656356812e-02,-4.407364502549171448e-02,-3.624781593680381775e-02,1.148852258920669556e-01,-6.644380092620849609e-02,-6.459096819162368774e-02,5.178153887391090393e-02,3.058449365198612213e-02,-8.211635798215866089e-02,8.974035084247589111e-02,3.087770752608776093e-02,2.158816158771514893e-02,-6.250584125518798828e-02,6.782410293817520142e-02,-4.811434447765350342e-02,1.389982551336288452e-01,4.694450646638870239e-02,7.901353389024734497e-02,-7.202107924968004227e-03,-6.801630556583404541e-02,4.894757643342018127e-02,1.068596839904785156e-01,1.208034250885248184e-02,2.503498643636703491e-02,7.240356504917144775e-02,6.636442989110946655e-02,3.168743848800659180e-02,9.470365196466445923e-02,2.885902486741542816e-02,1.171407289803028107e-02,8.948076516389846802e-02,-5.856283381581306458e-02,3.838492184877395630e-02,1.179277300834655762e-01,1.527920272201299667e-02,-4.150908440351486206e-02,6.758959963917732239e-03,6.225723028182983398e-02,-1.277007814496755600e-02,1.129794865846633911e-01,-7.714293897151947021e-02,1.093273088335990906e-01,7.066167145967483521e-02,2.207086980342864990e-02,3.368700295686721802e-02,2.956926822662353516e-03,7.615120615810155869e-03,-1.061670109629631042e-01,-4.352716356515884399e-02,-5.189019441604614258e-02,-1.026696190237998962e-01,4.854329675436019897e-02,2.980204299092292786e-02,5.281768739223480225e-02,-8.395602554082870483e-02,4.066837951540946960e-02,6.627558730542659760e-03,2.700418932363390923e-03,-6.707707792520523071e-02,-4.437191039323806763e-02,4.420445114374160767e-02,9.083043551072478294e-04,1.072295941412448883e-02,-2.424138411879539490e-02,1.748282834887504578e-02,3.915329277515411377e-02,3.058139607310295105e-02,7.082235068082809448e-02,2.721762098371982574e-02,1.082816570997238159e-01,-5.093524605035781860e-02,-8.161853998899459839e-02,4.199008271098136902e-02,-7.931075245141983032e-02,-5.539251863956451416e-02,7.239088416099548340e-02,-5.943481624126434326e-02,8.808875828981399536e-02,1.391704194247722626e-02,4.672183468937873840e-02,1.362519990652799606e-02,7.920840382575988770e-02,9.649699926376342773e-02,1.324729342013597488e-02,-5.414287745952606201e-02,-2.459882199764251709e-02,-1.717553474009037018e-02,8.713850378990173340e-02,4.953134432435035706e-02,4.129663854837417603e-02,5.213870480656623840e-02,2.733811549842357635e-02,5.794337764382362366e-02,-4.522486031055450439e-02,2.587413974106311798e-02,8.180345594882965088e-02,8.057020604610443115e-02,5.608795210719108582e-02,4.477471113204956055e-02,-7.525494322180747986e-03,1.451155077666044235e-02,-4.343834705650806427e-03,-4.762075096368789673e-02,1.188497757539153099e-03,5.006499961018562317e-02,7.430334389209747314e-02,-6.616105139255523682e-02,-7.699121255427598953e-03,-5.337315052747726440e-02,3.041596524417400360e-02,1.622821018099784851e-02,7.091146707534790039e-02,4.161222279071807861e-02,4.572699218988418579e-02,-7.110708206892013550e-02,2.941981144249439240e-02,-2.907546237111091614e-02,-3.062986070290207863e-03,2.449346706271171570e-02,-3.425562381744384766e-02,-2.760223113000392914e-02,5.894273146986961365e-02,-1.526879705488681793e-02,-9.863583371043205261e-03,7.164214551448822021e-02,5.832840874791145325e-02,4.837483912706375122e-02,7.151054590940475464e-02,-8.927810192108154297e-02,4.051506146788597107e-02,-3.508165851235389709e-02,1.723961322568356991e-03,7.143518328666687012e-02,3.043671883642673492e-02,-8.091501076705753803e-04,3.660241514444351196e-02,-8.547893725335597992e-03,6.995091587305068970e-02,4.267826303839683533e-02,9.281349182128906250e-02,3.989136219024658203e-02,-9.052947908639907837e-02
